{"learner":{"attributes":{"scikit_learn":"{\"_estimator_type\": \"classifier\"}"},"feature_names":[],"feature_types":[],"gradient_booster":{"model":{"cats":{"enc":[],"feature_segments":[],"sorted_idx":[]},"gbtree_model_param":{"num_parallel_tree":"1","num_trees":"2000"},"iteration_indptr":[0,1,2,3,4,5,6,7,8,9,10,11,12,13,14,15,16,17,18,19,20,21,22,23,24,25,26,27,28,29,30,31,32,33,34,35,36,37,38,39,40,41,42,43,44,45,46,47,48,49,50,51,52,53,54,55,56,57,58,59,60,61,62,63,64,65,66,67,68,69,70,71,72,73,74,75,76,77,78,79,80,81,82,83,84,85,86,87,88,89,90,91,92,93,94,95,96,97,98,99,100,101,102,103,104,105,106,107,108,109,110,111,112,113,114,115,116,117,118,119,120,121,122,123,124,125,126,127,128,129,130,131,132,133,134,135,136,137,138,139,140,141,142,143,144,145,146,147,148,149,150,151,152,153,154,155,156,157,158,159,160,161,162,163,164,165,166,167,168,169,170,171,172,173,174,175,176,177,178,179,180,181,182,183,184,185,186,187,188,189,190,191,192,193,194,195,196,197,198,199,200,201,202,203,204,205,206,207,208,209,210,211,212,213,214,215,216,217,218,219,220,221,222,223,224,225,226,227,228,229,230,231,232,233,234,235,236,237,238,239,240,241,242,243,244,245,246,247,248,249,250,251,252,253,254,255,256,257,258,259,260,261,262,263,264,265,266,267,268,269,270,271,272,273,274,275,276,277,278,279,280,281,282,283,284,285,286,287,288,289,290,291,292,293,294,295,296,297,298,299,300,301,302,303,304,305,306,307,308,309,310,311,312,313,314,315,316,317,318,319,320,321,322,323,324,325,326,327,328,329,330,331,332,333,334,335,336,337,338,339,340,341,342,343,344,345,346,347,348,349,350,351,352,353,354,355,356,357,358,359,360,361,362,363,364,365,366,367,368,369,370,371,372,373,374,375,376,377,378,379,380,381,382,383,384,385,386,387,388,389,390,391,392,393,394,395,396,397,398,399,400,401,402,403,404,405,406,407,408,409,410,411,412,413,414,415,416,417,418,419,420,421,422,423,424,425,426,427,428,429,430,431,432,433,434,435,436,437,438,439,440,441,442,443,444,445,446,447,448,449,450,451,452,453,454,455,456,457,458,459,460,461,462,463,464,465,466,467,468,469,470,471,472,473,474,475,476,477,478,479,480,481,482,483,484,485,486,487,488,489,490,491,492,493,494,495,496,497,498,499,500,501,502,503,504,505,506,507,508,509,510,511,512,513,514,515,516,517,518,519,520,521,522,523,524,525,526,527,528,529,530,531,532,533,534,535,536,537,538,539,540,541,542,543,544,545,546,547,548,549,550,551,552,553,554,555,556,557,558,559,560,561,562,563,564,565,566,567,568,569,570,571,572,573,574,575,576,577,578,579,580,581,582,583,584,585,586,587,588,589,590,591,592,593,594,595,596,597,598,599,600,601,602,603,604,605,606,607,608,609,610,611,612,613,614,615,616,617,618,619,620,621,622,623,624,625,626,627,628,629,630,631,632,633,634,635,636,637,638,639,640,641,642,643,644,645,646,647,648,649,650,651,652,653,654,655,656,657,658,659,660,661,662,663,664,665,666,667,668,669,670,671,672,673,674,675,676,677,678,679,680,681,682,683,684,685,686,687,688,689,690,691,692,693,694,695,696,697,698,699,700,701,702,703,704,705,706,707,708,709,710,711,712,713,714,715,716,717,718,719,720,721,722,723,724,725,726,727,728,729,730,731,732,733,734,735,736,737,738,739,740,741,742,743,744,745,746,747,748,749,750,751,752,753,754,755,756,757,758,759,760,761,762,763,764,765,766,767,768,769,770,771,772,773,774,775,776,777,778,779,780,781,782,783,784,785,786,787,788,789,790,791,792,793,794,795,796,797,798,799,800,801,802,803,804,805,806,807,808,809,810,811,812,813,814,815,816,817,818,819,820,821,822,823,824,825,826,827,828,829,830,831,832,833,834,835,836,837,838,839,840,841,842,843,844,845,846,847,848,849,850,851,852,853,854,855,856,857,858,859,860,861,862,863,864,865,866,867,868,869,870,871,872,873,874,875,876,877,878,879,880,881,882,883,884,885,886,887,888,889,890,891,892,893,894,895,896,897,898,899,900,901,902,903,904,905,906,907,908,909,910,911,912,913,914,915,916,917,918,919,920,921,922,923,924,925,926,927,928,929,930,931,932,933,934,935,936,937,938,939,940,941,942,943,944,945,946,947,948,949,950,951,952,953,954,955,956,957,958,959,960,961,962,963,964,965,966,967,968,969,970,971,972,973,974,975,976,977,978,979,980,981,982,983,984,985,986,987,988,989,990,991,992,993,994,995,996,997,998,999,1000,1001,1002,1003,1004,1005,1006,1007,1008,1009,1010,1011,1012,1013,1014,1015,1016,1017,1018,1019,1020,1021,1022,1023,1024,1025,1026,1027,1028,1029,1030,1031,1032,1033,1034,1035,1036,1037,1038,1039,1040,1041,1042,1043,1044,1045,1046,1047,1048,1049,1050,1051,1052,1053,1054,1055,1056,1057,1058,1059,1060,1061,1062,1063,1064,1065,1066,1067,1068,1069,1070,1071,1072,1073,1074,1075,1076,1077,1078,1079,1080,1081,1082,1083,1084,1085,1086,1087,1088,1089,1090,1091,1092,1093,1094,1095,1096,1097,1098,1099,1100,1101,1102,1103,1104,1105,1106,1107,1108,1109,1110,1111,1112,1113,1114,1115,1116,1117,1118,1119,1120,1121,1122,1123,1124,1125,1126,1127,1128,1129,1130,1131,1132,1133,1134,1135,1136,1137,1138,1139,1140,1141,1142,1143,1144,1145,1146,1147,1148,1149,1150,1151,1152,1153,1154,1155,1156,1157,1158,1159,1160,1161,1162,1163,1164,1165,1166,1167,1168,1169,1170,1171,1172,1173,1174,1175,1176,1177,1178,1179,1180,1181,1182,1183,1184,1185,1186,1187,1188,1189,1190,1191,1192,1193,1194,1195,1196,1197,1198,1199,1200,1201,1202,1203,1204,1205,1206,1207,1208,1209,1210,1211,1212,1213,1214,1215,1216,1217,1218,1219,1220,1221,1222,1223,1224,1225,1226,1227,1228,1229,1230,1231,1232,1233,1234,1235,1236,1237,1238,1239,1240,1241,1242,1243,1244,1245,1246,1247,1248,1249,1250,1251,1252,1253,1254,1255,1256,1257,1258,1259,1260,1261,1262,1263,1264,1265,1266,1267,1268,1269,1270,1271,1272,1273,1274,1275,1276,1277,1278,1279,1280,1281,1282,1283,1284,1285,1286,1287,1288,1289,1290,1291,1292,1293,1294,1295,1296,1297,1298,1299,1300,1301,1302,1303,1304,1305,1306,1307,1308,1309,1310,1311,1312,1313,1314,1315,1316,1317,1318,1319,1320,1321,1322,1323,1324,1325,1326,1327,1328,1329,1330,1331,1332,1333,1334,1335,1336,1337,1338,1339,1340,1341,1342,1343,1344,1345,1346,1347,1348,1349,1350,1351,1352,1353,1354,1355,1356,1357,1358,1359,1360,1361,1362,1363,1364,1365,1366,1367,1368,1369,1370,1371,1372,1373,1374,1375,1376,1377,1378,1379,1380,1381,1382,1383,1384,1385,1386,1387,1388,1389,1390,1391,1392,1393,1394,1395,1396,1397,1398,1399,1400,1401,1402,1403,1404,1405,1406,1407,1408,1409,1410,1411,1412,1413,1414,1415,1416,1417,1418,1419,1420,1421,1422,1423,1424,1425,1426,1427,1428,1429,1430,1431,1432,1433,1434,1435,1436,1437,1438,1439,1440,1441,1442,1443,1444,1445,1446,1447,1448,1449,1450,1451,1452,1453,1454,1455,1456,1457,1458,1459,1460,1461,1462,1463,1464,1465,1466,1467,1468,1469,1470,1471,1472,1473,1474,1475,1476,1477,1478,1479,1480,1481,1482,1483,1484,1485,1486,1487,1488,1489,1490,1491,1492,1493,1494,1495,1496,1497,1498,1499,1500,1501,1502,1503,1504,1505,1506,1507,1508,1509,1510,1511,1512,1513,1514,1515,1516,1517,1518,1519,1520,1521,1522,1523,1524,1525,1526,1527,1528,1529,1530,1531,1532,1533,1534,1535,1536,1537,1538,1539,1540,1541,1542,1543,1544,1545,1546,1547,1548,1549,1550,1551,1552,1553,1554,1555,1556,1557,1558,1559,1560,1561,1562,1563,1564,1565,1566,1567,1568,1569,1570,1571,1572,1573,1574,1575,1576,1577,1578,1579,1580,1581,1582,1583,1584,1585,1586,1587,1588,1589,1590,1591,1592,1593,1594,1595,1596,1597,1598,1599,1600,1601,1602,1603,1604,1605,1606,1607,1608,1609,1610,1611,1612,1613,1614,1615,1616,1617,1618,1619,1620,1621,1622,1623,1624,1625,1626,1627,1628,1629,1630,1631,1632,1633,1634,1635,1636,1637,1638,1639,1640,1641,1642,1643,1644,1645,1646,1647,1648,1649,1650,1651,1652,1653,1654,1655,1656,1657,1658,1659,1660,1661,1662,1663,1664,1665,1666,1667,1668,1669,1670,1671,1672,1673,1674,1675,1676,1677,1678,1679,1680,1681,1682,1683,1684,1685,1686,1687,1688,1689,1690,1691,1692,1693,1694,1695,1696,1697,1698,1699,1700,1701,1702,1703,1704,1705,1706,1707,1708,1709,1710,1711,1712,1713,1714,1715,1716,1717,1718,1719,1720,1721,1722,1723,1724,1725,1726,1727,1728,1729,1730,1731,1732,1733,1734,1735,1736,1737,1738,1739,1740,1741,1742,1743,1744,1745,1746,1747,1748,1749,1750,1751,1752,1753,1754,1755,1756,1757,1758,1759,1760,1761,1762,1763,1764,1765,1766,1767,1768,1769,1770,1771,1772,1773,1774,1775,1776,1777,1778,1779,1780,1781,1782,1783,1784,1785,1786,1787,1788,1789,1790,1791,1792,1793,1794,1795,1796,1797,1798,1799,1800,1801,1802,1803,1804,1805,1806,1807,1808,1809,1810,1811,1812,1813,1814,1815,1816,1817,1818,1819,1820,1821,1822,1823,1824,1825,1826,1827,1828,1829,1830,1831,1832,1833,1834,1835,1836,1837,1838,1839,1840,1841,1842,1843,1844,1845,1846,1847,1848,1849,1850,1851,1852,1853,1854,1855,1856,1857,1858,1859,1860,1861,1862,1863,1864,1865,1866,1867,1868,1869,1870,1871,1872,1873,1874,1875,1876,1877,1878,1879,1880,1881,1882,1883,1884,1885,1886,1887,1888,1889,1890,1891,1892,1893,1894,1895,1896,1897,1898,1899,1900,1901,1902,1903,1904,1905,1906,1907,1908,1909,1910,1911,1912,1913,1914,1915,1916,1917,1918,1919,1920,1921,1922,1923,1924,1925,1926,1927,1928,1929,1930,1931,1932,1933,1934,1935,1936,1937,1938,1939,1940,1941,1942,1943,1944,1945,1946,1947,1948,1949,1950,1951,1952,1953,1954,1955,1956,1957,1958,1959,1960,1961,1962,1963,1964,1965,1966,1967,1968,1969,1970,1971,1972,1973,1974,1975,1976,1977,1978,1979,1980,1981,1982,1983,1984,1985,1986,1987,1988,1989,1990,1991,1992,1993,1994,1995,1996,1997,1998,1999,2000],"tree_info":[0,0,0,0,0,0,0,0,0,0,0,0,0,0,0,0,0,0,0,0,0,0,0,0,0,0,0,0,0,0,0,0,0,0,0,0,0,0,0,0,0,0,0,0,0,0,0,0,0,0,0,0,0,0,0,0,0,0,0,0,0,0,0,0,0,0,0,0,0,0,0,0,0,0,0,0,0,0,0,0,0,0,0,0,0,0,0,0,0,0,0,0,0,0,0,0,0,0,0,0,0,0,0,0,0,0,0,0,0,0,0,0,0,0,0,0,0,0,0,0,0,0,0,0,0,0,0,0,0,0,0,0,0,0,0,0,0,0,0,0,0,0,0,0,0,0,0,0,0,0,0,0,0,0,0,0,0,0,0,0,0,0,0,0,0,0,0,0,0,0,0,0,0,0,0,0,0,0,0,0,0,0,0,0,0,0,0,0,0,0,0,0,0,0,0,0,0,0,0,0,0,0,0,0,0,0,0,0,0,0,0,0,0,0,0,0,0,0,0,0,0,0,0,0,0,0,0,0,0,0,0,0,0,0,0,0,0,0,0,0,0,0,0,0,0,0,0,0,0,0,0,0,0,0,0,0,0,0,0,0,0,0,0,0,0,0,0,0,0,0,0,0,0,0,0,0,0,0,0,0,0,0,0,0,0,0,0,0,0,0,0,0,0,0,0,0,0,0,0,0,0,0,0,0,0,0,0,0,0,0,0,0,0,0,0,0,0,0,0,0,0,0,0,0,0,0,0,0,0,0,0,0,0,0,0,0,0,0,0,0,0,0,0,0,0,0,0,0,0,0,0,0,0,0,0,0,0,0,0,0,0,0,0,0,0,0,0,0,0,0,0,0,0,0,0,0,0,0,0,0,0,0,0,0,0,0,0,0,0,0,0,0,0,0,0,0,0,0,0,0,0,0,0,0,0,0,0,0,0,0,0,0,0,0,0,0,0,0,0,0,0,0,0,0,0,0,0,0,0,0,0,0,0,0,0,0,0,0,0,0,0,0,0,0,0,0,0,0,0,0,0,0,0,0,0,0,0,0,0,0,0,0,0,0,0,0,0,0,0,0,0,0,0,0,0,0,0,0,0,0,0,0,0,0,0,0,0,0,0,0,0,0,0,0,0,0,0,0,0,0,0,0,0,0,0,0,0,0,0,0,0,0,0,0,0,0,0,0,0,0,0,0,0,0,0,0,0,0,0,0,0,0,0,0,0,0,0,0,0,0,0,0,0,0,0,0,0,0,0,0,0,0,0,0,0,0,0,0,0,0,0,0,0,0,0,0,0,0,0,0,0,0,0,0,0,0,0,0,0,0,0,0,0,0,0,0,0,0,0,0,0,0,0,0,0,0,0,0,0,0,0,0,0,0,0,0,0,0,0,0,0,0,0,0,0,0,0,0,0,0,0,0,0,0,0,0,0,0,0,0,0,0,0,0,0,0,0,0,0,0,0,0,0,0,0,0,0,0,0,0,0,0,0,0,0,0,0,0,0,0,0,0,0,0,0,0,0,0,0,0,0,0,0,0,0,0,0,0,0,0,0,0,0,0,0,0,0,0,0,0,0,0,0,0,0,0,0,0,0,0,0,0,0,0,0,0,0,0,0,0,0,0,0,0,0,0,0,0,0,0,0,0,0,0,0,0,0,0,0,0,0,0,0,0,0,0,0,0,0,0,0,0,0,0,0,0,0,0,0,0,0,0,0,0,0,0,0,0,0,0,0,0,0,0,0,0,0,0,0,0,0,0,0,0,0,0,0,0,0,0,0,0,0,0,0,0,0,0,0,0,0,0,0,0,0,0,0,0,0,0,0,0,0,0,0,0,0,0,0,0,0,0,0,0,0,0,0,0,0,0,0,0,0,0,0,0,0,0,0,0,0,0,0,0,0,0,0,0,0,0,0,0,0,0,0,0,0,0,0,0,0,0,0,0,0,0,0,0,0,0,0,0,0,0,0,0,0,0,0,0,0,0,0,0,0,0,0,0,0,0,0,0,0,0,0,0,0,0,0,0,0,0,0,0,0,0,0,0,0,0,0,0,0,0,0,0,0,0,0,0,0,0,0,0,0,0,0,0,0,0,0,0,0,0,0,0,0,0,0,0,0,0,0,0,0,0,0,0,0,0,0,0,0,0,0,0,0,0,0,0,0,0,0,0,0,0,0,0,0,0,0,0,0,0,0,0,0,0,0,0,0,0,0,0,0,0,0,0,0,0,0,0,0,0,0,0,0,0,0,0,0,0,0,0,0,0,0,0,0,0,0,0,0,0,0,0,0,0,0,0,0,0,0,0,0,0,0,0,0,0,0,0,0,0,0,0,0,0,0,0,0,0,0,0,0,0,0,0,0,0,0,0,0,0,0,0,0,0,0,0,0,0,0,0,0,0,0,0,0,0,0,0,0,0,0,0,0,0,0,0,0,0,0,0,0,0,0,0,0,0,0,0,0,0,0,0,0,0,0,0,0,0,0,0,0,0,0,0,0,0,0,0,0,0,0,0,0,0,0,0,0,0,0,0,0,0,0,0,0,0,0,0,0,0,0,0,0,0,0,0,0,0,0,0,0,0,0,0,0,0,0,0,0,0,0,0,0,0,0,0,0,0,0,0,0,0,0,0,0,0,0,0,0,0,0,0,0,0,0,0,0,0,0,0,0,0,0,0,0,0,0,0,0,0,0,0,0,0,0,0,0,0,0,0,0,0,0,0,0,0,0,0,0,0,0,0,0,0,0,0,0,0,0,0,0,0,0,0,0,0,0,0,0,0,0,0,0,0,0,0,0,0,0,0,0,0,0,0,0,0,0,0,0,0,0,0,0,0,0,0,0,0,0,0,0,0,0,0,0,0,0,0,0,0,0,0,0,0,0,0,0,0,0,0,0,0,0,0,0,0,0,0,0,0,0,0,0,0,0,0,0,0,0,0,0,0,0,0,0,0,0,0,0,0,0,0,0,0,0,0,0,0,0,0,0,0,0,0,0,0,0,0,0,0,0,0,0,0,0,0,0,0,0,0,0,0,0,0,0,0,0,0,0,0,0,0,0,0,0,0,0,0,0,0,0,0,0,0,0,0,0,0,0,0,0,0,0,0,0,0,0,0,0,0,0,0,0,0,0,0,0,0,0,0,0,0,0,0,0,0,0,0,0,0,0,0,0,0,0,0,0,0,0,0,0,0,0,0,0,0,0,0,0,0,0,0,0,0,0,0,0,0,0,0,0,0,0,0,0,0,0,0,0,0,0,0,0,0,0,0,0,0,0,0,0,0,0,0,0,0,0,0,0,0,0,0,0,0,0,0,0,0,0,0,0,0,0,0,0,0,0,0,0,0,0,0,0,0,0,0,0,0,0,0,0,0,0,0,0,0,0,0,0,0,0,0,0,0,0,0,0,0,0,0,0,0,0,0,0,0,0,0,0,0,0,0,0,0,0,0,0,0,0,0,0,0,0,0,0,0,0,0,0,0,0,0,0,0,0,0,0,0,0,0,0,0,0,0,0,0,0,0,0,0,0,0,0,0,0,0,0,0,0,0,0,0,0,0,0,0,0,0,0,0,0,0,0,0,0,0,0,0,0,0,0,0,0,0,0,0,0,0,0,0,0,0,0,0,0,0,0,0,0,0,0,0,0,0,0,0,0,0,0,0,0,0,0,0,0,0,0,0,0,0,0,0,0,0,0,0,0,0,0,0,0,0,0,0,0,0,0,0,0,0,0,0,0,0,0,0,0,0,0,0,0,0,0,0,0,0,0,0,0,0,0,0,0,0,0,0,0,0,0,0,0,0,0,0,0,0,0,0,0,0,0,0,0,0,0,0,0,0,0,0,0,0,0,0,0,0,0,0,0,0,0,0,0,0,0,0,0,0,0,0,0,0,0,0,0,0,0,0,0,0,0,0,0,0,0,0,0,0,0,0,0,0,0,0,0,0,0,0,0,0,0,0,0,0,0,0,0,0,0,0,0,0,0,0,0,0,0,0,0,0,0,0,0,0,0,0,0,0,0,0,0,0,0,0,0,0,0,0,0,0,0,0,0,0,0,0,0,0,0,0,0,0,0,0,0,0,0,0,0,0,0,0,0,0,0,0,0,0,0,0,0,0,0,0,0,0,0,0,0,0,0,0,0,0,0,0,0,0,0,0,0,0,0,0,0,0,0,0,0,0,0,0,0,0,0,0,0,0,0,0,0,0,0,0,0,0,0,0,0,0,0,0,0,0,0,0,0,0,0,0,0,0,0,0,0,0,0,0,0,0,0,0,0,0,0,0,0,0,0,0,0,0,0,0,0,0,0,0,0,0,0,0,0,0,0,0,0,0,0,0,0,0,0,0,0,0,0,0,0,0,0,0,0,0,0,0,0,0,0,0,0,0,0,0,0,0,0,0,0,0,0,0,0,0,0,0,0,0,0,0,0,0,0,0,0,0,0,0,0,0,0,0,0,0,0,0,0,0,0,0,0,0,0,0,0,0,0,0,0,0,0,0,0,0,0,0,0,0,0,0,0,0,0,0,0,0],"trees":[{"base_weights":[-3.4759422E-3,4.3053707E-1,-1.1922882E0,-1.4830716E0,9.470304E-1,-1.6829542E0,7.5937474E-1,-1.685509E0,-1.9834779E-1,-3.798272E-2,1.2854195E0,-1.705315E0,-5.3370905E-1,-1.6945797E0,1.6330137E0,-1.7010138E0,-2.6890308E-1,1.6826837E0,-1.2025245E0,-1.0051975E0,3.8634464E-1,6.42E-1,7.2337383E-1,-5.123977E-1,-9.1799366E-1,-1.5850637E0,1.6564041E0,3.6675018E-1,-1.7025195E0,1.9056545E0,-1.6810669E0,-1.70354E0,2.8280646E-1,-4.944872E-1,1.1074393E0,-5.006616E-1,2.2874544E0,-1.6769372E0,5.9063977E-1,7.0446205E-1,-1.0813761E0,7.2285867E-1,-4.524798E-1,2.5697705E-1,1.6334207E0,5.631475E-1,-4.9077442E-1,-5.075141E-1,4.6660522E-1,-4.374245E-1,2.09164E0,-5.1154923E-1,-1.7808196E-1,-1.5674561E0,2.095553E0,-1.7808196E-1,-5.07957E-1,-1.4112458E-1,-5.114833E-1,-3.815249E-1,4.869507E-1,-4.4241065E-1,5.7048815E-1,-4.3167475E-1,7.1389055E-1,4.568585E-1,-5.0818557E-1,6.657002E-1,-5.0152546E-1,3.3683825E-1,-3.388666E-1,-1.5658213E-1,7.1249574E-1,-1.804257E-1,1.8867691E-1,5.464175E-1,-2.2546017E-1,6.9243383E-1,-3.629709E-1,4.8675683E-1,-5.0521296E-1,6.7118037E-1,-5.0185835E-1],"categories":[],"categories_nodes":[],"categories_segments":[],"categories_sizes":[],"default_left":[0,0,0,0,0,0,0,0,0,0,0,0,0,0,0,0,0,0,0,0,0,0,0,0,0,0,0,0,0,0,0,0,0,0,0,0,0,0,0,0,0,0,0,0,0,0,0,0,0,0,0,0,0,0,0,0,0,0,0,0,0,0,0,0,0,0,0,0,0,0,0,0,0,0,0,0,0,0,0,0,0,0,0],"id":0,"left_children":[1,3,5,7,9,11,13,15,17,19,21,23,25,27,29,31,33,35,37,39,41,43,-1,-1,45,47,49,-1,51,53,55,57,59,-1,61,-1,63,65,67,-1,69,-1,71,73,75,-1,-1,-1,-1,-1,77,-1,-1,79,81,-1,-1,-1,-1,-1,-1,-1,-1,-1,-1,-1,-1,-1,-1,-1,-1,-1,-1,-1,-1,-1,-1,-1,-1,-1,-1,-1,-1],"loss_changes":[1.9459889E4,2.730902E4,9.660586E3,1.5270049E3,7.25217E3,2.0623438E2,4.3487026E3,1.109707E2,1.5141537E3,2.284046E3,1.1729135E4,1.5095703E1,3.6021436E2,1.4419067E1,1.3544133E3,2.5629883E1,1.0835465E2,5.6940814E2,4.454817E2,4.3605164E2,6.5658853E3,3.9336577E3,0E0,0E0,6.117582E1,3.7945526E1,7.199159E1,0E0,5.4711914E-1,9.149204E2,5.004883E-1,7.8759766E0,1.714884E1,0E0,6.1629147E1,0E0,8.476709E1,2.5088867E1,4.091506E2,0E0,1.7755176E2,0E0,5.384554E2,2.3708503E3,1.293685E3,0E0,0E0,0E0,0E0,0E0,3.4978256E1,0E0,0E0,2.9595505E1,7.038711E2,0E0,0E0,0E0,0E0,0E0,0E0,0E0,0E0,0E0,0E0,0E0,0E0,0E0,0E0,0E0,0E0,0E0,0E0,0E0,0E0,0E0,0E0,0E0,0E0,0E0,0E0,0E0,0E0],"parents":[2147483647,0,0,1,1,2,2,3,3,4,4,5,5,6,6,7,7,8,8,9,9,10,10,11,11,12,12,13,13,14,14,15,15,16,16,17,17,18,18,19,19,20,20,21,21,24,24,25,25,26,26,28,28,29,29,30,30,31,31,32,32,34,34,36,36,37,37,38,38,40,40,42,42,43,43,44,44,50,50,53,53,54,54],"right_children":[2,4,6,8,10,12,14,16,18,20,22,24,26,28,30,32,34,36,38,40,42,44,-1,-1,46,48,50,-1,52,54,56,58,60,-1,62,-1,64,66,68,-1,70,-1,72,74,76,-1,-1,-1,-1,-1,78,-1,-1,80,82,-1,-1,-1,-1,-1,-1,-1,-1,-1,-1,-1,-1,-1,-1,-1,-1,-1,-1,-1,-1,-1,-1,-1,-1,-1,-1,-1,-1],"split_conditions":[3E0,1.7392878E-1,1.9717406E-2,1.9717406E-2,2.8355107E-2,1.1253371E1,4.6075934E4,1.926977E1,6.49647E2,1.0135008E0,3.4325543E-1,2.2002364E2,2.5020195E4,3.9388725E-1,3E0,2.156E3,4.5826348E4,5.9248814E1,8.141823E2,1E0,2E0,2.054906E-2,7.2337383E-1,-5.123977E-1,5.9751324E2,7.19042E4,4.321108E4,3.6675018E-1,4.6027117E4,2.5384947E2,4.6165727E4,-1.3246274E2,-3.2818985E1,-4.944872E-1,5.8048866E1,-5.006616E-1,1.3073268E4,9.227667E-1,8.164435E2,7.0446205E-1,2.4E1,7.2285867E-1,2.1768563E0,1.0135008E0,4E0,5.631475E-1,-4.9077442E-1,-5.075141E-1,4.6660522E-1,-4.374245E-1,4.6776203E4,-5.1154923E-1,-1.7808196E-1,5.181075E-1,1.326048E0,-1.7808196E-1,-5.07957E-1,-1.4112458E-1,-5.114833E-1,-3.815249E-1,4.869507E-1,-4.4241065E-1,5.7048815E-1,-4.3167475E-1,7.1389055E-1,4.568585E-1,-5.0818557E-1,6.657002E-1,-5.0152546E-1,3.3683825E-1,-3.388666E-1,-1.5658213E-1,7.1249574E-1,-1.804257E-1,1.8867691E-1,5.464175E-1,-2.2546017E-1,6.9243383E-1,-3.629709E-1,4.8675683E-1,-5.0521296E-1,6.7118037E-1,-5.0185835E-1],"split_indices":[2,2,18,18,30,25,13,25,12,2,29,9,6,0,14,28,13,10,12,2,2,19,0,0,12,13,13,0,13,5,13,3,3,0,34,0,6,0,12,0,29,0,2,2,26,0,0,0,0,0,13,0,0,0,4,0,0,0,0,0,0,0,0,0,0,0,0,0,0,0,0,0,0,0,0,0,0,0,0,0,0,0,0],"split_type":[0,0,0,0,0,0,0,0,0,0,0,0,0,0,0,0,0,0,0,0,0,0,0,0,0,0,0,0,0,0,0,0,0,0,0,0,0,0,0,0,0,0,0,0,0,0,0,0,0,0,0,0,0,0,0,0,0,0,0,0,0,0,0,0,0,0,0,0,0,0,0,0,0,0,0,0,0,0,0,0,0,0,0],"sum_hessian":[3.771389E4,2.7628047E4,1.0085843E4,5.871661E3,2.1756385E4,8.059698E3,2.0261444E3,5.072121E3,7.9953986E2,5.5632554E3,1.619313E4,7.9053994E3,1.5429883E2,5.317049E2,1.4944395E3,5.0170093E3,5.511206E1,2.7803915E2,5.2150073E2,1.6960035E3,3.8672515E3,1.0305193E4,5.8879365E3,7.877444E3,2.79555E1,1.044394E2,4.9859432E1,1.0280416E0,5.306769E2,1.3812339E3,1.1320557E2,5.0107695E3,6.239431E0,2.7426895E1,2.7685165E1,4.2232563E1,2.358066E2,4.1244586E2,1.0905488E2,3.7009495E1,1.6589941E3,1.1329017E3,2.7343499E3,7.423501E3,2.8816929E3,5.3829236E0,2.2572577E1,1.0145524E2,2.98416E0,5.825181E0,4.4034252E1,5.288779E2,1.7989758E0,7.123011E1,1.3100038E3,1.7989758E0,1.11406586E2,6.0822883E0,5.0046875E3,2.9125905E0,3.3268404E0,6.3106127E0,2.1374552E1,5.3397493E0,2.3046684E2,1.7134025E0,4.1073245E2,6.342429E1,4.5630585E1,3.5009815E1,1.6239843E3,2.6695833E3,6.476662E1,2.2440198E3,5.179481E3,2.6713833E3,2.103094E2,4.1607094E1,2.4271588E0,2.0560832E0,6.917403E1,1.262917E3,4.708688E1],"tree_param":{"num_deleted":"0","num_feature":"35","num_nodes":"83","size_leaf_vector":"1"}},{"base_weights":[-2.0830505E-2,2.9876745E-1,-9.812188E-1,-1.228352E0,6.6032666E-1,-1.4019095E0,5.3748584E-1,-1.403361E0,-1.7878957E-1,-9.5611095E-1,7.697765E-1,-1.4215271E0,-4.4131243E-1,-1.388791E0,1.1544518E0,-1.4171374E0,-2.3286662E-1,1.1918033E0,-9.8735195E-1,-1.4020886E0,-6.840293E-1,8.873533E-1,-6.8653834E-1,-4.2718428E-1,-7.374336E-1,-1.3111553E0,1.1633251E0,4.4545874E-1,-1.4113346E0,-1.142335E0,1.3620442E0,-1.4194567E0,2.0647219E-1,-4.1229168E-1,7.749366E-1,-4.17398E-1,1.5992836E0,-1.3971378E0,4.0716413E-1,-1.429065E0,7.933955E-1,2.1060832E0,-9.1415954E-1,2.020341E-1,1.0910333E0,-2.7968755E-1,-1.0556208E0,4.113163E-1,-4.0923592E-1,-4.2310315E-1,3.5251048E-1,-3.6633983E-1,1.4656805E0,-4.2648223E-1,-7.233571E-1,4.8306116E-1,-4.4673955E-1,1.5185015E0,-4.223865E-1,-2.0050159E-1,-4.265401E-1,-3.373065E-1,3.8191172E-1,-3.7028235E-1,3.969154E-1,-3.618069E-1,4.9869147E-1,3.3217376E-1,-4.230587E-1,4.5247197E-1,-4.18115E-1,-4.46058E-1,-1.746664E-1,-3.2703492E-1,5.139727E-1,5.1201785E-1,6.868976E-1,-4.9637988E-1,-1.9409695E-1,-1.8418023E-1,1.5323897E-1,2.1477392E-1,5.053531E-1,-2.9287982E-1,5.438035E-1,-3.5486752E-1,8.790421E-2,4.850411E-1,-3.4447652E-1,3.9237073E-1,-5.024382E-1,4.7448257E-1,-4.1238022E-1],"categories":[],"categories_nodes":[],"categories_segments":[],"categories_sizes":[],"default_left":[0,0,0,0,0,0,0,0,0,0,0,0,0,0,0,0,0,0,0,0,0,0,0,0,0,0,0,0,0,0,0,0,0,0,0,0,0,0,0,0,0,0,0,0,0,0,0,0,0,0,0,0,0,0,0,0,0,0,0,0,0,0,0,0,0,0,0,0,0,0,0,0,0,0,0,0,0,0,0,0,0,0,0,0,0,0,0,0,0,0,0,0,0],"id":1,"left_children":[1,3,5,7,9,11,13,15,17,19,21,23,25,27,29,31,33,35,37,39,41,43,45,-1,47,49,51,-1,53,55,57,59,61,-1,63,-1,65,67,69,71,73,75,77,79,81,83,85,-1,-1,-1,-1,-1,87,-1,89,-1,-1,91,-1,-1,-1,-1,-1,-1,-1,-1,-1,-1,-1,-1,-1,-1,-1,-1,-1,-1,-1,-1,-1,-1,-1,-1,-1,-1,-1,-1,-1,-1,-1,-1,-1,-1,-1],"loss_changes":[1.0916604E4,1.4735176E4,5.6745166E3,9.3817236E2,3.818255E3,1.3042578E2,2.291809E3,7.027637E1,8.115955E2,1.6513843E2,3.4611348E3,1.0234375E1,1.9781874E2,3.2409973E1,6.9773315E2,1.6589844E1,6.103569E1,2.8830695E2,2.6371948E2,3.1796204E1,5.490619E2,2.610122E3,2.2649927E2,0E0,3.635831E1,2.4262482E1,3.7812996E1,0E0,2.2567139E0,1.1845036E2,5.8267725E2,6.6572266E0,1.1432766E1,0E0,3.2828445E1,0E0,4.3591248E1,1.3207764E1,2.1102078E2,2.4182983E1,1.3869092E1,8.7442017E-1,1.5479218E2,1.0800684E3,3.208129E3,1.0508348E3,1.3621265E2,0E0,0E0,0E0,0E0,0E0,1.9552765E1,0E0,1.9340996E1,0E0,0E0,2.3375342E2,0E0,0E0,0E0,0E0,0E0,0E0,0E0,0E0,0E0,0E0,0E0,0E0,0E0,0E0,0E0,0E0,0E0,0E0,0E0,0E0,0E0,0E0,0E0,0E0,0E0,0E0,0E0,0E0,0E0,0E0,0E0,0E0,0E0,0E0,0E0],"parents":[2147483647,0,0,1,1,2,2,3,3,4,4,5,5,6,6,7,7,8,8,9,9,10,10,11,11,12,12,13,13,14,14,15,15,16,16,17,17,18,18,19,19,20,20,21,21,22,22,24,24,25,25,26,26,28,28,29,29,30,30,31,31,32,32,34,34,36,36,37,37,38,38,39,39,40,40,41,41,42,42,43,43,44,44,45,45,46,46,52,52,54,54,57,57],"right_children":[2,4,6,8,10,12,14,16,18,20,22,24,26,28,30,32,34,36,38,40,42,44,46,-1,48,50,52,-1,54,56,58,60,62,-1,64,-1,66,68,70,72,74,76,78,80,82,84,86,-1,-1,-1,-1,-1,88,-1,90,-1,-1,92,-1,-1,-1,-1,-1,-1,-1,-1,-1,-1,-1,-1,-1,-1,-1,-1,-1,-1,-1,-1,-1,-1,-1,-1,-1,-1,-1,-1,-1,-1,-1,-1,-1,-1,-1],"split_conditions":[3E0,1.7392878E-1,1.9717406E-2,1.9717406E-2,1.1440357E-1,1.1253371E1,4.6165727E4,1.926977E1,6.49647E2,1.9468695E-2,6E0,2.2002364E2,2.5020195E4,5.213274E-1,3.0493463E2,2.156E3,4.5826348E4,5.9248814E1,8.138709E2,1.7384021E2,1E0,2.8355107E-2,2E0,-4.2718428E-1,5.9751324E2,7.19042E4,4.321108E4,4.4545874E-1,4.6027117E4,7.519531E-1,1.326048E0,-9.986005E1,7.748904E2,-4.1229168E-1,5.8048866E1,-4.17398E-1,1.3073268E4,9.0699106E-1,8.164435E2,6.835847E1,5.4862965E1,4.367521E1,3.9323074E4,1.0135008E0,3.4325543E-1,1.0135008E0,1.0062934E0,4.113163E-1,-4.0923592E-1,-4.2310315E-1,3.5251048E-1,-3.6633983E-1,1.538E3,-4.2648223E-1,4.8163982E1,4.8306116E-1,-4.4673955E-1,2.9387054E0,-4.223865E-1,-2.0050159E-1,-4.265401E-1,-3.373065E-1,3.8191172E-1,-3.7028235E-1,3.969154E-1,-3.618069E-1,4.9869147E-1,3.3217376E-1,-4.230587E-1,4.5247197E-1,-4.18115E-1,-4.46058E-1,-1.746664E-1,-3.2703492E-1,5.139727E-1,5.1201785E-1,6.868976E-1,-4.9637988E-1,-1.9409695E-1,-1.8418023E-1,1.5323897E-1,2.1477392E-1,5.053531E-1,-2.9287982E-1,5.438035E-1,-3.5486752E-1,8.790421E-2,4.850411E-1,-3.4447652E-1,3.9237073E-1,-5.024382E-1,4.7448257E-1,-4.1238022E-1],"split_indices":[2,2,18,18,21,25,13,25,12,1,21,9,6,0,5,28,13,10,12,3,1,30,2,0,12,13,13,0,13,0,4,3,12,0,34,0,6,0,12,10,10,10,13,2,29,2,19,0,0,0,0,0,27,0,10,0,0,14,0,0,0,0,0,0,0,0,0,0,0,0,0,0,0,0,0,0,0,0,0,0,0,0,0,0,0,0,0,0,0,0,0,0,0],"split_type":[0,0,0,0,0,0,0,0,0,0,0,0,0,0,0,0,0,0,0,0,0,0,0,0,0,0,0,0,0,0,0,0,0,0,0,0,0,0,0,0,0,0,0,0,0,0,0,0,0,0,0,0,0,0,0,0,0,0,0,0,0,0,0,0,0,0,0,0,0,0,0,0,0,0,0,0,0,0,0,0,0,0,0,0,0,0,0,0,0,0,0,0,0],"sum_hessian":[3.5564176E4,2.6684725E4,8.879452E3,5.1079316E3,2.1576793E4,6.9533955E3,1.9260568E3,4.3776455E3,7.3028644E2,1.3678356E3,2.0208957E4,6.813762E3,1.3963327E2,4.669392E2,1.4591176E3,4.3265127E3,5.1132755E1,2.7079248E2,4.5949393E2,5.167163E2,8.511193E2,1.869962E4,1.5093379E3,6.7886616E3,2.5100405E1,9.066722E1,4.8966045E1,3.1296952E0,4.6380954E2,1.2057554E2,1.338542E3,4.3204663E3,6.0461497E0,2.3806185E1,2.732657E1,3.6567364E1,2.3422511E2,3.5513406E2,1.0435987E2,5.107892E2,5.9270806E0,6.423071E1,7.868886E2,4.2847563E3,1.4414863E4,7.187718E2,7.9056616E2,5.4788857E0,1.962152E1,8.760488E1,3.0623379E0,5.1683435E0,4.3797703E1,4.5593527E2,7.87426E0,1.3084026E1,1.0749151E2,1.2674072E3,7.1134865E1,1.4328279E1,4.306138E3,2.6657422E0,3.3804073E0,5.588625E0,2.1737946E1,4.747767E0,2.2947734E2,1.4074328E0,3.5372662E2,6.486394E1,3.9495934E1,4.7744882E2,3.33404E1,1.8840744E0,4.0430064E0,2.3470104E1,4.0760605E1,2.0726811E2,5.796205E2,1.1759852E3,3.1087712E3,8.833598E3,5.581265E3,5.396485E2,1.7912329E2,7.22506E2,6.8060135E1,4.1764576E1,2.0331273E0,2.3922637E0,5.481996E0,1.2407952E3,2.6612055E1],"tree_param":{"num_deleted":"0","num_feature":"35","num_nodes":"93","size_leaf_vector":"1"}},{"base_weights":[-2.5753882E-2,-2.9873607E-1,7.5115794E-1,-9.158755E-3,-1.274651E0,1.128608E0,-6.790013E-2,-7.913489E-1,5.073875E-1,-3.8504052E-1,-3.8310552E-1,1.5956012E0,8.453663E-1,1.4747641E0,-9.429412E-1,-3.8307264E-1,-3.6283752E-1,1.6599082E0,-1.976357E-1,3.5933495E-1,-1.187567E0,1.9877379E0,1.5444407E0,-8.943293E-1,1.2827437E0,1.535263E0,-4.117069E-1,1.7866354E0,-1.2194786E0,3.3032548E-2,-9.398659E-1,1.9352777E0,1.4719477E0,2.3064868E-1,-9.2250764E-1,-3.8260615E-1,-4.893853E-2,1.7224888E0,2.3775978E0,1.6633886E0,4.2645293E-1,-1.365154E0,1.5827416E0,-1.4737008E0,1.3733002E0,-2.8840828E-1,1.5415667E0,1.6477166E0,2.0235121E0,-1.2827213E0,-2.0259243E-1,-1.7893463E-1,6.139319E-1,-3.3941233E-1,-5.279098E-2,5.825198E-1,4.917275E-1,4.7398654E-1,4.24355E-1,-1.6667369E-1,5.6084555E-1,-2.4017352E-1,-5.3137314E-1,7.413427E-1,4.7360134E-1,7.278054E-1,4.0585142E-1,5.0217384E-1,4.2570487E-1,-6.168118E-3,-4.5634356E-1,6.747257E-1,4.3998036E-1,-4.841236E-1,4.2340347E-1,4.3339217E-1,-4.6918762E-1,4.787367E-1,4.3383333E-1,6.340622E-1,4.702385E-1,7.1814346E-1,4.7470427E-1,-4.3640643E-1,-2.8727695E-1,1.5211333E-1,-2.9821524E-1],"categories":[],"categories_nodes":[],"categories_segments":[],"categories_sizes":[],"default_left":[0,0,0,0,0,0,0,0,0,0,0,0,0,0,0,0,0,0,0,0,0,0,0,0,0,0,0,0,0,0,0,0,0,0,0,0,0,0,0,0,0,0,0,0,0,0,0,0,0,0,0,0,0,0,0,0,0,0,0,0,0,0,0,0,0,0,0,0,0,0,0,0,0,0,0,0,0,0,0,0,0,0,0,0,0,0,0],"id":2,"left_children":[1,3,5,7,9,11,13,15,17,19,-1,21,23,25,27,-1,29,31,33,-1,35,37,39,41,43,45,-1,47,49,51,53,55,57,59,61,-1,-1,63,65,67,-1,69,71,73,75,-1,77,79,81,83,85,-1,-1,-1,-1,-1,-1,-1,-1,-1,-1,-1,-1,-1,-1,-1,-1,-1,-1,-1,-1,-1,-1,-1,-1,-1,-1,-1,-1,-1,-1,-1,-1,-1,-1,-1,-1],"loss_changes":[6.788969E3,6.694198E3,2.5732036E3,7.381497E3,1.0922852E1,7.5228125E2,3.546966E3,1.5114116E3,8.940931E3,2.1514498E1,0E0,4.0061523E1,2.701334E3,1.6591797E2,1.2676788E3,0E0,8.8205554E2,2.1330957E2,2.1199136E3,0E0,7.8101826E-1,2.1202454E1,2.5509766E1,8.343154E2,7.099634E2,1.6145508E1,0E0,1.7542725E0,9.7678955E1,2.9049626E3,2.2965222E2,4.9804688E-2,1.31875E1,5.5322334E3,2.6102808E2,0E0,0E0,1.2164673E1,1.5023193E0,1.0107422E-1,0E0,1.25835815E2,5.556671E0,3.8920807E1,5.777637E2,0E0,2.5046387E0,5.323181E-1,4.8341217E0,7.875952E1,5.125182E1,0E0,0E0,0E0,0E0,0E0,0E0,0E0,0E0,0E0,0E0,0E0,0E0,0E0,0E0,0E0,0E0,0E0,0E0,0E0,0E0,0E0,0E0,0E0,0E0,0E0,0E0,0E0,0E0,0E0,0E0,0E0,0E0,0E0,0E0,0E0,0E0],"parents":[2147483647,0,0,1,1,2,2,3,3,4,4,5,5,6,6,7,7,8,8,9,9,11,11,12,12,13,13,14,14,16,16,17,17,18,18,20,20,21,21,22,22,23,23,24,24,25,25,27,27,28,28,29,29,30,30,31,31,32,32,33,33,34,34,37,37,38,38,39,39,41,41,42,42,43,43,44,44,46,46,47,47,48,48,49,49,50,50],"right_children":[2,4,6,8,10,12,14,16,18,20,-1,22,24,26,28,-1,30,32,34,-1,36,38,40,42,44,46,-1,48,50,52,54,56,58,60,62,-1,-1,64,66,68,-1,70,72,74,76,-1,78,80,82,84,86,-1,-1,-1,-1,-1,-1,-1,-1,-1,-1,-1,-1,-1,-1,-1,-1,-1,-1,-1,-1,-1,-1,-1,-1,-1,-1,-1,-1,-1,-1,-1,-1,-1,-1,-1,-1],"split_conditions":[4.9659973E-3,2.1768563E0,3E0,1.0135008E0,-5.4211575E1,9.97145E-1,5.9751324E2,1.7392878E-1,2E0,5.9751324E2,-3.8310552E-1,2.8355107E-2,4.5826348E4,5.724456E2,9.97145E-1,-3.8307264E-1,1E0,3.4325543E-1,1E0,3.5933495E-1,2.492966E4,2E0,3.4325543E-1,2.0040739E0,2.3290437E2,1.4256225E-2,-4.117069E-1,4E0,4.1270432E0,1.9468695E-2,8.0219934E2,6E0,2.8355107E-2,1.9468695E-2,6.8010592E0,-3.8260615E-1,-4.893853E-2,1.0135008E0,2.1768563E0,3E0,4.2645293E-1,2E0,2.8355107E-2,2.0040739E0,2E0,-2.8840828E-1,3E0,2.8355107E-2,3.4325543E-1,3.4325543E-1,-1.8100067E0,-1.7893463E-1,6.139319E-1,-3.3941233E-1,-5.279098E-2,5.825198E-1,4.917275E-1,4.7398654E-1,4.24355E-1,-1.6667369E-1,5.6084555E-1,-2.4017352E-1,-5.3137314E-1,7.413427E-1,4.7360134E-1,7.278054E-1,4.0585142E-1,5.0217384E-1,4.2570487E-1,-6.168118E-3,-4.5634356E-1,6.747257E-1,4.3998036E-1,-4.841236E-1,4.2340347E-1,4.3339217E-1,-4.6918762E-1,4.787367E-1,4.3383333E-1,6.340622E-1,4.702385E-1,7.1814346E-1,4.7470427E-1,-4.3640643E-1,-2.8727695E-1,1.5211333E-1,-2.9821524E-1],"split_indices":[23,2,26,2,3,23,12,2,2,12,0,30,13,5,23,0,1,29,1,0,9,2,29,26,5,4,0,26,14,1,12,21,30,1,11,0,0,2,2,2,0,26,30,26,4,0,2,30,29,29,32,0,0,0,0,0,0,0,0,0,0,0,0,0,0,0,0,0,0,0,0,0,0,0,0,0,0,0,0,0,0,0,0,0,0,0,0],"split_type":[0,0,0,0,0,0,0,0,0,0,0,0,0,0,0,0,0,0,0,0,0,0,0,0,0,0,0,0,0,0,0,0,0,0,0,0,0,0,0,0,0,0,0,0,0,0,0,0,0,0,0,0,0,0,0,0,0,0,0,0,0,0,0,0,0,0,0,0,0,0,0,0,0,0,0,0,0,0,0,0,0,0,0,0,0,0,0],"sum_hessian":[3.2008836E4,2.3686697E4,8.322139E3,1.8267348E4,5.4193496E3,5.696581E3,2.6255576E3,7.265259E3,1.1002089E4,1.48173E1,5.404532E3,2.1489226E3,3.5476584E3,9.5002106E2,1.6755365E3,3.4049834E3,3.8602751E3,4.175284E3,6.826804E3,4.819426E0,9.997874E0,2.4363596E2,1.9052866E3,7.1252026E2,2.8351382E3,9.3070514E2,1.9315916E1,1.5363304E2,1.5219034E3,2.2900974E3,1.5701776E3,1.6900283E3,2.4852559E3,4.291745E3,2.5350593E3,8.983154E0,1.0147195E0,1.4821384E2,9.542212E1,9.6196277E2,9.4332385E2,5.990969E2,1.1342337E2,8.9693344E1,2.7454448E3,1.9624667E0,9.287427E2,1.0185506E2,5.1777985E1,1.4325483E3,8.9355156E1,1.7451798E3,5.449177E2,1.2550548E3,3.151229E2,1.6485453E3,4.148308E1,8.5354E2,1.6317158E3,2.9007693E3,1.3909758E3,2.2183193E3,3.1674E2,2.1276253E1,1.26937584E2,8.9811134E1,5.610988E0,9.166374E2,4.5325375E1,6.2395885E1,5.3670105E2,1.410904E1,9.931433E1,8.59613E1,3.732041E0,2.6808406E3,6.460427E1,5.8227325E2,3.464694E2,1.1245795E1,9.060926E1,2.5743551E1,2.6034431E1,9.3469836E2,4.9784995E2,4.7302326E1,4.205283E1],"tree_param":{"num_deleted":"0","num_feature":"35","num_nodes":"87","size_leaf_vector":"1"}},{"base_weights":[-2.3919307E-2,1.8464631E-1,-8.141008E-1,-1.0204906E0,3.9812446E-1,-1.1852611E0,3.2400718E-1,-1.1884474E0,-2.705959E-1,6.9753015E-1,4.8418418E-2,-1.1865183E0,2.7183509E-2,-1.1745826E0,7.872039E-1,-9.016058E-2,-3.566525E-1,8.346302E-1,-8.295704E-1,-5.685065E-2,1.3918763E0,-1.283317E-1,6.9472474E-1,-3.5666487E-1,-9.1851294E-1,-2.4858335E-1,2.669821E-1,-1.1812646E0,-6.841773E-2,1.2334299E0,1.4072232E-1,-3.4964842E-1,1.1965767E0,-1.1824046E0,4.3508655E-1,1.4212791E0,-2.301524E-1,1.4979842E0,1.3064173E0,1.843667E-1,-6.136277E-1,1.4028382E0,2.6311725E-1,3.2068998E-1,-1.195021E0,-3.5525241E-1,-4.6966974E-2,1.6132522E-1,-1.8575718E-1,1.2495481E0,-4.9944267E-1,-1.6259708E0,1.2491686E0,-2.995974E-1,3.7761256E-1,2.959152E-1,-3.618409E-1,4.0853375E-1,-3.5060692E-1,4.437421E-1,3.9218372E-1,-2.904943E-1,-1.082854E-2,4.5839804E-1,4.3119308E-1,4.1145957E-1,3.8272813E-1,-1.1813737E-1,4.5593944E-1,-3.0401728E-1,-1.1252914E-1,5.124584E-1,4.0651783E-1,-1.246447E-1,4.155799E-1,-2.8134864E-3,-3.68504E-1,3.799091E-1,-3.3318043E-1,-6.8967664E-1,-4.0228924E-1,3.86304E-1,-3.1858328E-1],"categories":[],"categories_nodes":[],"categories_segments":[],"categories_sizes":[],"default_left":[0,0,0,0,0,0,0,0,0,0,0,0,0,0,0,0,0,0,0,0,0,0,0,0,0,0,0,0,0,0,0,0,0,0,0,0,0,0,0,0,0,0,0,0,0,0,0,0,0,0,0,0,0,0,0,0,0,0,0,0,0,0,0,0,0,0,0,0,0,0,0,0,0,0,0,0,0,0,0,0,0,0,0],"id":3,"left_children":[1,3,5,7,9,11,13,15,17,19,21,23,25,27,29,-1,-1,31,33,35,37,39,41,-1,43,-1,-1,45,47,49,51,-1,53,55,57,59,61,63,65,67,69,71,73,-1,75,-1,-1,-1,-1,77,-1,79,81,-1,-1,-1,-1,-1,-1,-1,-1,-1,-1,-1,-1,-1,-1,-1,-1,-1,-1,-1,-1,-1,-1,-1,-1,-1,-1,-1,-1,-1,-1],"loss_changes":[4.564651E3,5.6380938E3,2.4436448E3,4.1504785E2,1.949196E3,6.680176E0,9.8881274E2,5.8569336E-1,3.7431717E2,5.253556E3,9.81143E2,1.6699219E0,4.7949343E0,2.4058838E0,3.1361774E2,0E0,0E0,1.4881067E2,1.7995615E2,1.2319336E3,4.540039E1,1.02361865E3,5.633377E2,0E0,2.4635136E1,0E0,0E0,8.116455E-1,1.3617767E0,3.2137085E1,8.741158E2,0E0,2.4842407E1,1.7386536E1,1.330511E2,1.3953247E0,6.165271E2,2.0341797E0,4.0405273E0,3.1680803E3,2.5165936E2,7.8725586E0,8.741423E2,0E0,1.4814186E0,0E0,0E0,0E0,0E0,2.6823425E1,0E0,2.9929443E1,2.5773102E1,0E0,0E0,0E0,0E0,0E0,0E0,0E0,0E0,0E0,0E0,0E0,0E0,0E0,0E0,0E0,0E0,0E0,0E0,0E0,0E0,0E0,0E0,0E0,0E0,0E0,0E0,0E0,0E0,0E0,0E0],"parents":[2147483647,0,0,1,1,2,2,3,3,4,4,5,5,6,6,7,7,8,8,9,9,10,10,11,11,12,12,13,13,14,14,17,17,18,18,19,19,20,20,21,21,22,22,24,24,27,27,28,28,29,29,30,30,32,32,33,33,34,34,35,35,36,36,37,37,38,38,39,39,40,40,41,41,42,42,44,44,49,49,51,51,52,52],"right_children":[2,4,6,8,10,12,14,16,18,20,22,24,26,28,30,-1,-1,32,34,36,38,40,42,-1,44,-1,-1,46,48,50,52,-1,54,56,58,60,62,64,66,68,70,72,74,-1,76,-1,-1,-1,-1,78,-1,80,82,-1,-1,-1,-1,-1,-1,-1,-1,-1,-1,-1,-1,-1,-1,-1,-1,-1,-1,-1,-1,-1,-1,-1,-1,-1,-1,-1,-1,-1,-1],"split_conditions":[3E0,1.7392878E-1,2.016316E0,1.3072593E-2,2E0,1.9361469E3,4.6075934E4,-1.16032234E2,6.49647E2,1.0135008E0,2.054906E-2,1.1220218E0,2.044763E0,-1.1915257E1,4.6776203E4,-9.016058E-2,-3.566525E-1,5.9248814E1,8.1626166E2,1E0,3.4325543E-1,1E0,2E0,-3.5666487E-1,2E0,-2.4858335E-1,2.669821E-1,4.6027117E4,3.1232247E0,1.545E3,7.19042E4,-3.4964842E-1,1.3073268E4,9.8544675E-1,8.164435E2,1.0499074E0,1.0683802E0,2.054906E-2,2.8355107E-2,1.9468695E-2,2.0208611E0,2.8355107E-2,2.1768563E0,3.2068998E-1,6.1210693E2,-3.5525241E-1,-4.6966974E-2,1.6132522E-1,-1.8575718E-1,5.931531E0,-4.9944267E-1,1.0495807E0,1.4098666E0,-2.995974E-1,3.7761256E-1,2.959152E-1,-3.618409E-1,4.0853375E-1,-3.5060692E-1,4.437421E-1,3.9218372E-1,-2.904943E-1,-1.082854E-2,4.5839804E-1,4.3119308E-1,4.1145957E-1,3.8272813E-1,-1.1813737E-1,4.5593944E-1,-3.0401728E-1,-1.1252914E-1,5.124584E-1,4.0651783E-1,-1.246447E-1,4.155799E-1,-2.8134864E-3,-3.68504E-1,3.799091E-1,-3.3318043E-1,-6.8967664E-1,-4.0228924E-1,3.86304E-1,-3.1858328E-1],"split_indices":[2,2,25,25,2,8,13,3,12,2,19,25,19,3,13,0,0,10,12,2,29,1,1,0,25,0,0,13,15,27,13,0,6,0,12,29,21,19,30,1,21,30,2,0,12,0,0,0,0,11,0,14,14,0,0,0,0,0,0,0,0,0,0,0,0,0,0,0,0,0,0,0,0,0,0,0,0,0,0,0,0,0,0],"split_type":[0,0,0,0,0,0,0,0,0,0,0,0,0,0,0,0,0,0,0,0,0,0,0,0,0,0,0,0,0,0,0,0,0,0,0,0,0,0,0,0,0,0,0,0,0,0,0,0,0,0,0,0,0,0,0,0,0,0,0,0,0,0,0,0,0,0,0,0,0,0,0,0,0,0,0,0,0,0,0,0,0,0,0],"sum_hessian":[2.7695422E4,2.1912469E4,5.7829526E3,3.296896E3,1.8615574E4,4.3607734E3,1.4221791E3,2.6931226E3,6.0377325E2,1.00285205E4,8.587053E3,4.3562783E3,4.4954424E0,3.3542758E2,1.0867516E3,1.5339246E0,2.6915886E3,2.0263072E2,4.0114252E2,4.8069116E3,5.2216094E3,6.7436255E3,1.8434272E3,4.314775E3,4.1503006E1,2.276696E0,2.2187464E0,3.3334604E2,2.0815408E0,6.424206E2,4.4433093E2,3.0709463E1,1.7192126E2,3.1368945E2,8.745306E1,5.0368314E2,4.303228E3,2.3220142E3,2.8995955E3,4.1014766E3,2.642149E3,6.97246E2,1.1461813E3,4.718868E0,3.678414E1,3.3224686E2,1.0991778E0,1.0021927E0,1.0793481E0,6.3943335E2,2.9872537E0,1.7112195E2,2.7320898E2,4.3170815E0,1.6760419E2,2.9563038E0,3.1073315E2,5.5522175E1,3.193088E1,3.261629E2,1.7752025E2,8.949596E2,3.4082686E3,1.537422E3,7.8459204E2,9.141745E2,1.9854209E3,2.8627783E3,1.2386981E3,9.861578E2,1.6559912E3,8.963463E1,6.076113E2,7.1464325E2,4.3153802E2,1.0406814E0,3.5743458E1,6.3536993E2,4.0634556E0,4.8809013E1,1.22312935E2,2.6916656E2,4.04243E0],"tree_param":{"num_deleted":"0","num_feature":"35","num_nodes":"83","size_leaf_vector":"1"}},{"base_weights":[-1.9187232E-2,1.5528512E-1,-7.705398E-1,-9.689848E-1,3.2605946E-1,-1.1273903E0,2.9679292E-1,-1.1312581E0,-2.5535917E-1,4.781625E-1,-1.4559156E-1,-1.1286991E0,2.4993611E-2,-1.09775E0,7.2662073E-1,-7.597339E-2,-3.3952737E-1,7.6955473E-1,-7.801061E-1,2.4757154E-1,1.5483292E0,-6.6109717E-1,3.1842715E-1,-3.3986923E-1,-9.016463E-1,-2.2645731E-1,2.4007401E-1,2.6225433E-1,-1.1157795E0,1.1421818E0,1.2958257E-1,-3.2948378E-1,1.1038713E0,-1.114719E0,3.9954254E-1,4.0876754E-2,8.464531E-1,1.9857328E0,1.4437062E0,-3.535932E-1,-1.0065775E0,1.5428727E0,-3.89574E-1,3.3624902E-1,-1.1198094E0,-3.3827168E-1,-4.7061434E-1,1.1586292E0,-4.2009225E-1,-1.4708616E0,1.155671E0,3.4753442E-1,-3.7176526E-1,2.6561278E-1,-3.4168458E-1,3.750002E-1,-3.3043367E-1,1.0742613E-1,-1.084251E-1,7.2668925E-2,3.2171613E-1,8.843728E-1,5.472808E-1,3.7852556E-1,5.001871E-1,-1.9863616E-1,3.9163303E-1,2.3931468E-2,-3.2244673E-1,5.855794E-1,4.356884E-1,-2.023196E-1,8.291707E-2,1.2512553E-1,-3.582707E-1,2.4618496E-1,-3.1773904E-1,-1.3265531E-1,3.543282E-1,-5.758936E-1,-3.765161E-1,3.5796022E-1,-2.9081735E-1],"categories":[],"categories_nodes":[],"categories_segments":[],"categories_sizes":[],"default_left":[0,0,0,0,0,0,0,0,0,0,0,0,0,0,0,0,0,0,0,0,0,0,0,0,0,0,0,0,0,0,0,0,0,0,0,0,0,0,0,0,0,0,0,0,0,0,0,0,0,0,0,0,0,0,0,0,0,0,0,0,0,0,0,0,0,0,0,0,0,0,0,0,0,0,0,0,0,0,0,0,0,0,0],"id":4,"left_children":[1,3,5,7,9,11,13,15,17,19,21,23,25,27,29,-1,-1,31,33,35,37,39,41,-1,43,-1,-1,-1,45,47,49,-1,51,53,55,57,59,61,63,65,67,69,71,-1,73,-1,75,77,-1,79,81,-1,-1,-1,-1,-1,-1,-1,-1,-1,-1,-1,-1,-1,-1,-1,-1,-1,-1,-1,-1,-1,-1,-1,-1,-1,-1,-1,-1,-1,-1,-1,-1],"loss_changes":[3.1282983E3,3.7186458E3,1.7131917E3,2.954807E2,1.2062675E3,5.1118164E0,6.767044E2,6.262207E-1,2.5578214E2,3.137011E3,9.811327E2,2.1879883E0,3.5074248E0,1.0434967E1,2.1385458E2,0E0,0E0,1.0185466E2,1.2450914E2,1.2949072E3,1.00265625E2,2.06055E2,1.8721152E3,0E0,3.038544E1,0E0,0E0,0E0,1.4786682E0,2.2884033E1,5.8485834E2,0E0,1.89805E1,1.2887024E1,9.097529E1,9.927044E2,3.6615564E2,6.178882E1,7.203125E1,5.278267E2,6.7879395E1,2.6478516E1,2.5980362E2,0E0,7.3718414E0,0E0,5.77586E0,1.870868E1,0E0,1.1069275E1,1.8458313E1,0E0,0E0,0E0,0E0,0E0,0E0,0E0,0E0,0E0,0E0,0E0,0E0,0E0,0E0,0E0,0E0,0E0,0E0,0E0,0E0,0E0,0E0,0E0,0E0,0E0,0E0,0E0,0E0,0E0,0E0,0E0,0E0],"parents":[2147483647,0,0,1,1,2,2,3,3,4,4,5,5,6,6,7,7,8,8,9,9,10,10,11,11,12,12,13,13,14,14,17,17,18,18,19,19,20,20,21,21,22,22,24,24,28,28,29,29,30,30,32,32,33,33,34,34,35,35,36,36,37,37,38,38,39,39,40,40,41,41,42,42,44,44,46,46,47,47,49,49,50,50],"right_children":[2,4,6,8,10,12,14,16,18,20,22,24,26,28,30,-1,-1,32,34,36,38,40,42,-1,44,-1,-1,-1,46,48,50,-1,52,54,56,58,60,62,64,66,68,70,72,-1,74,-1,76,78,-1,80,82,-1,-1,-1,-1,-1,-1,-1,-1,-1,-1,-1,-1,-1,-1,-1,-1,-1,-1,-1,-1,-1,-1,-1,-1,-1,-1,-1,-1,-1,-1,-1,-1],"split_conditions":[3E0,1.7392878E-1,2.016316E0,1.3072593E-2,3E0,1.9361469E3,4.6165727E4,-1.16032234E2,6.49647E2,2.0172818E0,3.0344367E0,1.3072593E-2,2.044763E0,5.213274E-1,4.6776203E4,-7.597339E-2,-3.3952737E-1,5.9248814E1,8.1626166E2,1.9717406E-2,1.0135008E0,9.993414E-1,4E0,-3.3986923E-1,7.4748886E-1,-2.2645731E-1,2.4007401E-1,2.6225433E-1,4.6027117E4,1.545E3,7.19042E4,-3.2948378E-1,6.835847E1,9.8544675E-1,8.164435E2,2E0,4.55834E4,2.8355107E-2,2E0,1.9468695E-2,3.0269636E1,1.0135008E0,4.1270432E0,3.3624902E-1,5.9751324E2,-3.3827168E-1,4.8163982E1,2.7147668E2,-4.2009225E-1,1.0495807E0,1.4098666E0,3.4753442E-1,-3.7176526E-1,2.6561278E-1,-3.4168458E-1,3.750002E-1,-3.3043367E-1,1.0742613E-1,-1.084251E-1,7.2668925E-2,3.2171613E-1,8.843728E-1,5.472808E-1,3.7852556E-1,5.001871E-1,-1.9863616E-1,3.9163303E-1,2.3931468E-2,-3.2244673E-1,5.855794E-1,4.356884E-1,-2.023196E-1,8.291707E-2,1.2512553E-1,-3.582707E-1,2.4618496E-1,-3.1773904E-1,-1.3265531E-1,3.543282E-1,-5.758936E-1,-3.765161E-1,3.5796022E-1,-2.9081735E-1],"split_indices":[2,2,25,25,14,8,13,3,12,14,14,25,19,0,13,0,0,10,12,18,2,1,14,0,0,0,0,0,13,27,13,0,10,0,12,14,13,30,2,1,10,2,14,0,12,0,10,5,0,14,14,0,0,0,0,0,0,0,0,0,0,0,0,0,0,0,0,0,0,0,0,0,0,0,0,0,0,0,0,0,0,0,0],"split_type":[0,0,0,0,0,0,0,0,0,0,0,0,0,0,0,0,0,0,0,0,0,0,0,0,0,0,0,0,0,0,0,0,0,0,0,0,0,0,0,0,0,0,0,0,0,0,0,0,0,0,0,0,0,0,0,0,0,0,0,0,0,0,0,0,0,0,0,0,0,0,0,0,0,0,0,0,0,0,0,0,0,0,0],"sum_hessian":[2.3861785E4,1.936566E4,4.4961265E3,2.5530862E3,1.6812572E4,3.3695125E3,1.1266139E3,2.079612E3,4.7347394E2,1.2712801E4,4.0997725E3,3.3657102E3,3.802247E0,2.6506787E2,8.61546E2,1.4719772E0,2.0781401E3,1.6017001E2,3.1330392E2,1.046016E4,2.2526401E3,1.9419366E3,2.157836E3,3.3006895E3,6.5020775E1,1.9086173E0,1.8936298E0,1.9713609E0,2.630965E2,5.0743738E2,3.5410864E2,2.3969091E1,1.3620093E2,2.4411469E2,6.918923E1,7.777086E3,2.6830742E3,4.3133878E2,1.8213014E3,1.0285087E3,9.1342804E2,7.9014624E2,1.3676897E3,5.9279795E0,5.9092796E1,2.5763953E2,5.456979E0,5.0471664E2,2.7207267E0,1.3816772E2,2.1594092E2,1.3359476E2,2.6061766E0,2.4964576E0,2.4161823E2,4.4271988E1,2.4917242E1,4.348436E3,3.4286504E3,7.3078436E2,1.9522898E3,5.9502224E1,3.7183655E2,1.00779456E3,8.1350684E2,8.6773816E2,1.6077043E2,5.3980263E1,8.5944775E2,1.395185E2,6.5062775E2,9.579666E2,4.0972314E2,2.5168161E0,5.6575977E1,1.5850099E0,3.8719687E0,6.7262545E0,4.9799042E2,4.230246E1,9.5865265E1,2.1262439E2,3.3165395E0],"tree_param":{"num_deleted":"0","num_feature":"35","num_nodes":"83","size_leaf_vector":"1"}},{"base_weights":[-1.8316105E-2,1.23156264E-1,-7.4047714E-1,-9.332218E-1,2.550376E-1,-1.0886526E0,2.786466E-1,-1.0925636E0,-2.4422587E-1,5.079529E-1,-1.685472E-2,-1.0900542E0,2.2946326E-2,-1.0802692E0,6.7336804E-1,-6.402507E-2,-3.2796466E-1,7.1473646E-1,-7.436935E-1,-1.1128106E-1,1.2256645E0,-2.9965872E-1,3.0626288E-1,-3.2839847E-1,-8.45183E-1,-2.0704852E-1,2.1762252E-1,-3.2655686E-1,-6.216735E-3,1.052476E0,1.2259821E-1,-3.1863642E-1,1.0307531E0,-1.0646154E0,3.745581E-1,3.6165178E-1,-2.2228535E-1,1.2756811E0,3.550061E-1,-3.8557938E-1,3.658945E-1,-2.7906987E-1,1.3634844E0,3.0466244E-1,-1.0593958E0,1.0795724E0,-3.2508582E-1,-1.3416604E0,1.0941924E0,-2.535106E-1,3.2985252E-1,2.4077159E-1,-3.269636E-1,3.5224482E-1,-3.1521064E-1,-2.3819454E-1,-7.6238825E-3,3.805889E-1,4.380317E-1,-7.2540194E-2,-3.139893E-1,-4.8310347E-2,-3.5599244E-1,6.075435E-1,4.003444E-1,9.9548094E-2,-3.4331143E-1,-2.873528E-1,3.3084208E-1,-4.8070464E-1,-3.557216E-1,3.3964542E-1,-2.664695E-1],"categories":[],"categories_nodes":[],"categories_segments":[],"categories_sizes":[],"default_left":[0,0,0,0,0,0,0,0,0,0,0,0,0,0,0,0,0,0,0,0,0,0,0,0,0,0,0,0,0,0,0,0,0,0,0,0,0,0,0,0,0,0,0,0,0,0,0,0,0,0,0,0,0,0,0,0,0,0,0,0,0,0,0,0,0,0,0,0,0,0,0,0,0],"id":5,"left_children":[1,3,5,7,9,11,13,15,17,19,21,23,25,27,29,-1,-1,31,33,35,37,39,41,-1,43,-1,-1,-1,-1,45,47,-1,49,51,53,-1,55,57,-1,59,-1,61,63,-1,65,67,-1,69,71,-1,-1,-1,-1,-1,-1,-1,-1,-1,-1,-1,-1,-1,-1,-1,-1,-1,-1,-1,-1,-1,-1,-1,-1],"loss_changes":[2.1518735E3,2.453936E3,1.2245751E3,2.1436023E2,1.0767722E3,4.0319824E0,4.724254E2,6.765137E-1,1.7702498E2,3.605521E3,6.8973615E2,1.9729004E0,2.61363E0,1.711792E0,1.4228705E2,0E0,0E0,7.22416E1,8.7525604E1,6.369603E2,6.442383E0,5.259075E2,2.1804878E3,0E0,2.1732708E1,0E0,0E0,0E0,0E0,2.454538E1,3.9868683E2,0E0,1.4868263E1,9.785477E0,6.3773335E1,0E0,4.522176E2,3.7036133E-1,0E0,3.6190924E2,0E0,2.4280959E2,2.1392822E1,0E0,5.931801E0,1.9958405E1,0E0,2.6450653E0,1.3677124E1,0E0,0E0,0E0,0E0,0E0,0E0,0E0,0E0,0E0,0E0,0E0,0E0,0E0,0E0,0E0,0E0,0E0,0E0,0E0,0E0,0E0,0E0,0E0,0E0],"parents":[2147483647,0,0,1,1,2,2,3,3,4,4,5,5,6,6,7,7,8,8,9,9,10,10,11,11,12,12,13,13,14,14,17,17,18,18,19,19,20,20,21,21,22,22,24,24,29,29,30,30,32,32,33,33,34,34,36,36,37,37,39,39,41,41,42,42,44,44,45,45,47,47,48,48],"right_children":[2,4,6,8,10,12,14,16,18,20,22,24,26,28,30,-1,-1,32,34,36,38,40,42,-1,44,-1,-1,-1,-1,46,48,-1,50,52,54,-1,56,58,-1,60,-1,62,64,-1,66,68,-1,70,72,-1,-1,-1,-1,-1,-1,-1,-1,-1,-1,-1,-1,-1,-1,-1,-1,-1,-1,-1,-1,-1,-1,-1,-1],"split_conditions":[3E0,1.7392878E-1,2.016316E0,1.3072593E-2,2E0,1.9361469E3,4.6027117E4,-1.16032234E2,6.49647E2,1.0135008E0,3.4325543E-1,1.3072593E-2,2.044763E0,-1.1915257E1,4.6776203E4,-6.402507E-2,-3.2796466E-1,1.3073268E4,8.1626166E2,1E0,3.4325543E-1,2.1768563E0,2.8355107E-2,-3.2839847E-1,7.4748886E-1,-2.0704852E-1,2.1762252E-1,-3.2655686E-1,-6.216735E-3,1.2636857E0,7.19042E4,-3.1863642E-1,5.4657963E1,9.8544675E-1,8.164435E2,3.6165178E-1,1.0495807E0,3.0394125E0,3.550061E-1,2E1,3.658945E-1,2.4109542E0,1.1440357E-1,3.0466244E-1,5.9751324E2,2.3048448E2,-3.2508582E-1,2.0040739E0,1.4098666E0,-2.535106E-1,3.2985252E-1,2.4077159E-1,-3.269636E-1,3.5224482E-1,-3.1521064E-1,-2.3819454E-1,-7.6238825E-3,3.805889E-1,4.380317E-1,-7.2540194E-2,-3.139893E-1,-4.8310347E-2,-3.5599244E-1,6.075435E-1,4.003444E-1,9.9548094E-2,-3.4331143E-1,-2.873528E-1,3.3084208E-1,-4.8070464E-1,-3.557216E-1,3.3964542E-1,-2.664695E-1],"split_indices":[2,2,25,25,2,8,13,3,12,2,29,25,19,3,13,0,0,6,12,2,29,2,30,0,0,0,0,0,0,4,13,0,10,0,12,0,14,26,0,22,0,32,21,0,12,5,0,26,14,0,0,0,0,0,0,0,0,0,0,0,0,0,0,0,0,0,0,0,0,0,0,0,0],"split_type":[0,0,0,0,0,0,0,0,0,0,0,0,0,0,0,0,0,0,0,0,0,0,0,0,0,0,0,0,0,0,0,0,0,0,0,0,0,0,0,0,0,0,0,0,0,0,0,0,0,0,0,0,0,0,0,0,0,0,0,0,0,0,0,0,0,0,0,0,0,0,0,0,0],"sum_hessian":[2.1060662E4,1.7611395E4,3.4492676E3,1.9539614E3,1.5657434E4,2.5708792E3,8.783885E2,1.5864766E3,3.6748483E2,8.111352E3,7.546081E3,2.5676611E3,3.2181048E0,1.9732315E2,6.8106537E2,1.4187454E0,1.5850577E3,1.257047E2,2.4178014E2,4.354865E3,3.756487E3,4.0241096E3,3.5219714E3,2.5168364E3,5.082469E1,1.6056406E0,1.6124643E0,1.9577081E2,1.5523453E0,4.0285782E2,2.7820755E2,1.8624468E1,1.0708023E2,1.8790276E2,5.3877377E1,3.378044E2,4.0170608E3,1.7081251E3,2.0483618E3,3.8094233E3,2.1468631E2,2.2673723E3,1.2545991E3,4.8608546E0,4.5963837E1,3.9829996E2,4.5578413E0,1.1081736E2,1.673902E2,3.3869388E0,1.0369329E2,2.097667E0,1.8580508E2,3.462721E1,1.925017E1,1.0282114E3,2.9888494E3,1.652808E3,5.5317177E1,3.1300117E3,6.794118E2,2.0074661E3,2.5990616E2,4.9794395E1,1.2048047E3,2.4786346E0,4.3485203E1,4.037392E0,3.9426257E2,3.800295E1,7.2814415E1,1.646661E2,2.7240818E0],"tree_param":{"num_deleted":"0","num_feature":"35","num_nodes":"73","size_leaf_vector":"1"}},{"base_weights":[-1.2380685E-2,1.05448484E-1,-7.188204E-1,-9.0758187E-1,2.1088085E-1,-1.0578877E0,2.7446413E-1,-1.065445E0,-2.3545042E-1,-3.17555E-1,3.2661042E-1,-1.0625938E0,2.3441395E-1,-1.0463245E0,6.4598036E-1,-5.395016E-2,-3.1989256E-1,-3.1888917E-1,2.935056E-1,7.9333544E-2,-8.0702E-1,1.5177927E0,2.0510443E-1,-3.2054588E-1,-2.7628556E-1,-2.315539E-1,2.6691395E-1,2.2843579E-2,-3.1719977E-1,1.0122098E0,8.364063E-2,-4.641824E-1,8.01797E-1,-6.238221E-1,1.3811691E0,-1.0338562E0,2.4278378E-2,1.9393274E0,1.3819671E0,-1.0542394E0,3.5142708E-1,-9.030879E-1,2.6379728E-1,1.0339807E0,-4.1364124E-1,-1.2409209E0,1.0440894E0,3.13657E-1,-3.2315448E-1,3.150941E-1,-3.5899766E-2,-2.6621214E-1,-8.264426E-2,5.169981E-1,3.8932815E-1,-2.2776574E-1,-3.8556832E-1,-1.0884166E-1,2.8444648E-1,7.8280604E-1,5.084276E-1,4.5071042E-1,3.6237252E-1,-5.9908815E-4,-3.272726E-1,4.3707842E-1,4.8546676E-2,4.932823E-2,-3.0905867E-1,-2.9873443E-1,3.1657538E-1,-3.9486733E-1,-3.08643E-1,3.2692227E-1,-2.5651464E-1],"categories":[],"categories_nodes":[],"categories_segments":[],"categories_sizes":[],"default_left":[0,0,0,0,0,0,0,0,0,0,0,0,0,0,0,0,0,0,0,0,0,0,0,0,0,0,0,0,0,0,0,0,0,0,0,0,0,0,0,0,0,0,0,0,0,0,0,0,0,0,0,0,0,0,0,0,0,0,0,0,0,0,0,0,0,0,0,0,0,0,0,0,0,0,0],"id":6,"left_children":[1,3,5,7,9,11,13,15,17,19,21,23,25,27,29,-1,-1,-1,31,33,35,37,39,-1,41,-1,-1,-1,-1,43,45,47,49,51,53,55,57,59,61,63,65,67,-1,69,-1,71,73,-1,-1,-1,-1,-1,-1,-1,-1,-1,-1,-1,-1,-1,-1,-1,-1,-1,-1,-1,-1,-1,-1,-1,-1,-1,-1,-1,-1],"loss_changes":[1.52885E3,1.6814791E3,8.8455066E2,1.572157E2,8.720868E2,1.2154541E1,3.2893317E2,7.2717285E-1,1.244268E2,4.9779483E2,1.6927025E3,8.742676E0,5.910682E0,1.8998566E0,1.0756778E2,0E0,0E0,0E0,6.729284E1,1.2968644E3,2.1638104E2,5.930298E1,1.9565304E3,0E0,1.2280588E1,0E0,0E0,0E0,0E0,1.7899414E1,2.6495764E2,6.6277084E1,2.4024857E1,8.421301E1,1.1942566E1,6.1254578E1,8.865438E1,3.8402588E1,1.5416748E1,4.2645264E1,1.9934342E3,1.6313944E0,0E0,1.46154785E1,0E0,4.460144E-2,1.139476E1,0E0,0E0,0E0,0E0,0E0,0E0,0E0,0E0,0E0,0E0,0E0,0E0,0E0,0E0,0E0,0E0,0E0,0E0,0E0,0E0,0E0,0E0,0E0,0E0,0E0,0E0,0E0,0E0],"parents":[2147483647,0,0,1,1,2,2,3,3,4,4,5,5,6,6,7,7,8,8,9,9,10,10,11,11,12,12,13,13,14,14,18,18,19,19,20,20,21,21,22,22,24,24,29,29,30,30,31,31,32,32,33,33,34,34,35,35,36,36,37,37,38,38,39,39,40,40,41,41,43,43,45,45,46,46],"right_children":[2,4,6,8,10,12,14,16,18,20,22,24,26,28,30,-1,-1,-1,32,34,36,38,40,-1,42,-1,-1,-1,-1,44,46,48,50,52,54,56,58,60,62,64,66,68,-1,70,-1,72,74,-1,-1,-1,-1,-1,-1,-1,-1,-1,-1,-1,-1,-1,-1,-1,-1,-1,-1,-1,-1,-1,-1,-1,-1,-1,-1,-1,-1],"split_conditions":[3E0,1.7392878E-1,2.054906E-2,1.3072593E-2,1.0683802E0,3.1039223E1,4.6075934E4,-1.16032234E2,4.6165727E4,1E0,2E0,1.7047686E4,6.344292E1,6.076635E-1,4.6776203E4,-5.395016E-2,-3.1989256E-1,-3.1888917E-1,1.236892E4,1.1440357E-1,4.9659973E-3,1.9468695E-2,2.0208611E0,-3.2054588E-1,7.1869445E4,-2.315539E-1,2.6691395E-1,2.2843579E-2,-3.1719977E-1,1.545E3,7.19042E4,4.1104412E1,6.591687E2,3.4325543E-1,2.8355107E-2,2.8E1,2.541484E4,2.8355107E-2,2.054906E-2,2.9211338E1,3E0,9.3415356E-1,2.6379728E-1,6.29E2,-4.1364124E-1,2.0172818E0,1.6711507E0,3.13657E-1,-3.2315448E-1,3.150941E-1,-3.5899766E-2,-2.6621214E-1,-8.264426E-2,5.169981E-1,3.8932815E-1,-2.2776574E-1,-3.8556832E-1,-1.0884166E-1,2.8444648E-1,7.8280604E-1,5.084276E-1,4.5071042E-1,3.6237252E-1,-5.9908815E-4,-3.272726E-1,4.3707842E-1,4.8546676E-2,4.932823E-2,-3.0905867E-1,-2.9873443E-1,3.1657538E-1,-3.9486733E-1,-3.08643E-1,3.2692227E-1,-2.5651464E-1],"split_indices":[2,2,19,25,21,25,13,3,13,21,21,9,10,26,13,0,0,0,6,21,23,1,21,0,13,0,0,0,0,27,13,10,12,29,30,34,6,30,19,10,21,22,0,27,0,14,14,0,0,0,0,0,0,0,0,0,0,0,0,0,0,0,0,0,0,0,0,0,0,0,0,0,0,0,0],"split_type":[0,0,0,0,0,0,0,0,0,0,0,0,0,0,0,0,0,0,0,0,0,0,0,0,0,0,0,0,0,0,0,0,0,0,0,0,0,0,0,0,0,0,0,0,0,0,0,0,0,0,0,0,0,0,0,0,0,0,0,0,0,0,0,0,0,0,0,0,0,0,0,0,0,0,0],"sum_hessian":[1.8365037E4,1.5740485E4,2.6245515E3,1.4830663E3,1.4257419E4,1.9565867E3,6.679648E2,1.2005166E3,2.8254965E2,2.5611484E3,1.16962705E4,1.9496644E3,6.9222755E0,1.4624135E2,5.2172345E2,1.3733903E0,1.1991432E3,1.0978672E2,1.7276292E2,1.4147883E3,1.1463601E3,1.081575E3,1.0614695E4,1.9348065E3,1.485788E1,2.6599195E0,4.2623563E0,1.3627907E0,1.4487856E2,3.1547028E2,2.0625317E2,6.939925E1,1.0336368E2,9.1895654E2,4.9583182E2,9.004194E2,2.4594077E2,2.603381E2,8.212368E2,1.1042893E3,9.510406E3,9.774637E0,5.083242E0,3.1318616E2,2.2841098E0,8.6570786E1,1.1968239E2,1.9837498E1,4.9561745E1,8.129795E1,2.2065727E1,5.2226697E2,3.9668958E2,9.33267E1,4.0250513E2,4.3221814E2,4.6820123E2,1.7375046E2,7.219031E1,6.703054E1,1.9330756E2,4.8093225E2,3.4030457E2,3.7222496E1,1.0670668E3,1.3913547E3,8.1190513E3,1.008779E0,8.765859E0,2.772803E0,3.1041336E2,6.0047432E1,2.6523355E1,1.17289185E2,2.3932014E0],"tree_param":{"num_deleted":"0","num_feature":"35","num_nodes":"75","size_leaf_vector":"1"}},{"base_weights":[-1.1710954E-2,8.320978E-2,-7.0189357E-1,-8.844318E-1,1.648663E-1,-1.041779E0,2.4981032E-1,-1.0458474E0,-2.2326763E-1,2.3109126E-1,-5.828451E-1,-3.1473002E-1,-7.020227E-1,-1.0056396E0,6.175925E-1,-4.545145E-2,-3.141005E-1,-3.1222573E-1,2.7004313E-1,1.4016286E-1,1.484271E0,-8.678555E-1,-2.0886746E-1,7.0936984E-1,-9.47334E-1,2.046677E-1,-3.0912036E-1,9.703358E-1,1.1100328E-1,1.0270292E0,-2.1342582E-1,2.6646784E-1,-9.679841E-1,1.9016627E0,1.3745761E0,-1.0374835E0,2.2948751E-1,-7.0537955E-1,1.3685585E0,-6.9227335E-3,2.6275188E-1,3.5179275E-1,-3.200832E-1,-5.827271E-1,1.0131937E0,-3.5246658E-1,1.0193334E0,-1.6128615E-1,3.2033387E-1,-3.2773644E-1,2.6888707E-1,3.4424108E-2,4.2366588E-1,-3.3750254E-1,-5.452818E-3,4.91249E-1,6.76162E-1,4.482646E-1,3.5920995E-1,-3.524873E-1,-2.0115112E-1,-2.9921144E-1,4.1569045E-1,-3.0973482E-1,-4.5027483E-2,4.6633E-1,3.7400693E-1,1.6603343E-1,-2.7205818E-3,2.1407714E-1,-3.6881408E-1,3.114888E-1,-2.8273842E-1,3.1827772E-1,-2.2393848E-1],"categories":[],"categories_nodes":[],"categories_segments":[],"categories_sizes":[],"default_left":[0,0,0,0,0,0,0,0,0,0,0,0,0,0,0,0,0,0,0,0,0,0,0,0,0,0,0,0,0,0,0,0,0,0,0,0,0,0,0,0,0,0,0,0,0,0,0,0,0,0,0,0,0,0,0,0,0,0,0,0,0,0,0,0,0,0,0,0,0,0,0,0,0,0,0],"id":7,"left_children":[1,3,5,7,9,11,13,15,17,19,21,-1,23,25,27,-1,-1,-1,29,31,33,35,37,39,41,-1,-1,43,45,47,49,51,53,55,57,59,61,63,65,-1,-1,67,-1,69,71,-1,73,-1,-1,-1,-1,-1,-1,-1,-1,-1,-1,-1,-1,-1,-1,-1,-1,-1,-1,-1,-1,-1,-1,-1,-1,-1,-1,-1,-1],"loss_changes":[1.0777698E3,1.1428842E3,6.436427E2,1.1989575E2,6.60585E2,2.9094238E0,2.4266924E2,7.750244E-1,8.987E1,1.3960524E3,1.1551938E2,0E0,1.2423319E1,5.6829224E0,7.245413E1,0E0,0E0,0E0,5.1215305E1,1.5994197E3,3.5334595E1,1.148457E2,3.6969482E2,7.027116E-1,4.9349422E0,0E0,0E0,1.6515228E1,1.9720448E2,4.0477486E0,8.473414E1,1.7829001E3,1.7436255E2,1.2115662E1,1.2202515E1,2.6125122E1,1.1946989E2,6.499898E1,6.2294006E-1,0E0,0E0,2.3976177E-1,0E0,6.7953415E0,1.24262085E1,0E0,8.054001E0,0E0,0E0,0E0,0E0,0E0,0E0,0E0,0E0,0E0,0E0,0E0,0E0,0E0,0E0,0E0,0E0,0E0,0E0,0E0,0E0,0E0,0E0,0E0,0E0,0E0,0E0,0E0,0E0],"parents":[2147483647,0,0,1,1,2,2,3,3,4,4,5,5,6,6,7,7,8,8,9,9,10,10,12,12,13,13,14,14,18,18,19,19,20,20,21,21,22,22,23,23,24,24,27,27,28,28,29,29,30,30,31,31,32,32,33,33,34,34,35,35,36,36,37,37,38,38,41,41,43,43,44,44,46,46],"right_children":[2,4,6,8,10,12,14,16,18,20,22,-1,24,26,28,-1,-1,-1,30,32,34,36,38,40,42,-1,-1,44,46,48,50,52,54,56,58,60,62,64,66,-1,-1,68,-1,70,72,-1,74,-1,-1,-1,-1,-1,-1,-1,-1,-1,-1,-1,-1,-1,-1,-1,-1,-1,-1,-1,-1,-1,-1,-1,-1,-1,-1,-1,-1],"split_conditions":[3E0,1.7392878E-1,2.016316E0,1.3072593E-2,6E0,1.3072593E-2,4.6165727E4,-1.16032234E2,4.6165727E4,5.0401936E0,3.4325543E-1,-3.1473002E-1,1.4977224E0,5.213274E-1,4.6776203E4,-4.545145E-2,-3.141005E-1,-3.1222573E-1,4.6776203E4,5E0,2.8355107E-2,8.1626166E2,2.8355107E-2,2E0,5.9751324E2,2.046677E-1,-3.0912036E-1,1.8393126E0,7.19042E4,2.7147668E2,6.944956E4,4.0241046E0,1.2389592E-2,4.695555E1,3.4325543E-1,1.945366E4,7.1E1,2.0172818E0,1.0135008E0,-6.9227335E-3,2.6275188E-1,1.4410436E0,-3.200832E-1,8.5776806E-1,1.2636857E0,-3.5246658E-1,1.4098666E0,-1.6128615E-1,3.2033387E-1,-3.2773644E-1,2.6888707E-1,3.4424108E-2,4.2366588E-1,-3.3750254E-1,-5.452818E-3,4.91249E-1,6.76162E-1,4.482646E-1,3.5920995E-1,-3.524873E-1,-2.0115112E-1,-2.9921144E-1,4.1569045E-1,-3.0973482E-1,-4.5027483E-2,4.6633E-1,3.7400693E-1,1.6603343E-1,-2.7205818E-3,2.1407714E-1,-3.6881408E-1,3.114888E-1,-2.8273842E-1,3.1827772E-1,-2.2393848E-1],"split_indices":[2,2,25,25,21,25,13,3,13,21,29,0,26,0,13,0,0,0,13,21,30,12,30,34,12,0,0,11,13,5,13,21,20,31,29,6,34,14,2,0,0,21,0,0,4,0,14,0,0,0,0,0,0,0,0,0,0,0,0,0,0,0,0,0,0,0,0,0,0,0,0,0,0,0,0],"split_type":[0,0,0,0,0,0,0,0,0,0,0,0,0,0,0,0,0,0,0,0,0,0,0,0,0,0,0,0,0,0,0,0,0,0,0,0,0,0,0,0,0,0,0,0,0,0,0,0,0,0,0,0,0,0,0,0,0,0,0,0,0,0,0,0,0,0,0,0,0,0,0,0,0,0,0],"sum_hessian":[1.6449434E4,1.4461435E4,1.988E3,1.1246257E3,1.3336809E4,1.4647823E3,5.232177E2,9.0347174E2,2.21154E2,1.225231E4,1.0844988E3,1.4318416E3,3.29407E1,1.1815458E2,4.0506314E2,1.3349574E0,9.021368E2,8.281246E1,1.3834154E2,1.1424482E4,8.278275E2,6.147068E2,4.6979202E2,4.597483E0,2.8343218E1,1.3244127E0,1.1683017E2,2.3825105E2,1.6681207E2,5.3480602E1,8.486094E1,1.0256249E4,1.1682329E3,1.6888408E2,6.589434E2,5.324543E2,8.2252556E1,3.5774173E2,1.1205029E2,1.010925E0,3.5865583E0,2.2258887E0,2.6117329E1,6.059877E0,2.3219118E2,6.89328E1,9.787927E1,1.0480146E0,5.2432587E1,4.7360928E1,3.750001E1,9.057899E3,1.19835E3,1.0023394E3,1.6589351E2,9.973197E1,6.91521E1,3.889324E2,2.70011E2,3.857477E2,1.4670656E2,3.9972553E1,4.228E1,2.2459427E2,1.3314746E2,3.9717705E1,7.233259E1,1.0855812E0,1.1403075E0,1.9823774E0,4.0774994E0,2.2971175E2,2.4794362E0,9.601682E1,1.8624464E0],"tree_param":{"num_deleted":"0","num_feature":"35","num_nodes":"75","size_leaf_vector":"1"}},{"base_weights":[-1.1138812E-2,6.40043E-2,-6.8864655E-1,-2.6615694E-1,2.4027984E-1,-1.0232751E0,2.4988854E-1,-8.679841E-1,-1.3368805E-1,1.1252283E0,-7.599198E-2,-1.0281128E0,1.991805E-1,-1.008854E0,5.882731E-1,-3.1034845E-1,-2.2881079E-1,3.3252645E-1,-2.0440994E-1,3.4561664E-1,3.300842E-1,-5.255002E-1,4.7091965E-2,-3.1039557E-1,-2.3903E-1,-1.9229074E-1,2.2792119E-1,-3.075649E-1,3.8761266E-2,6.943999E-1,-2.9762802E-1,-3.080328E-1,2.4471918E-1,2.1485124E-2,-5.9973246E-1,1.5838486E-1,-6.6840655E-1,9.269363E-2,-1.2329957E0,-2.754224E-1,5.99212E-1,-3.2324007E-1,7.660303E-1,2.991302E-1,-6.539283E-2,-2.2234648E-1,4.197868E-2,-2.3660044E-1,-2.9164648E-3,-1.8297519E-1,4.4007322E-1,-3.0376053E-1,-1.1985472E-1,7.218206E-2,-8.9766994E-2,-4.0783653E-1,-1.1805237E-1,2.3715366E-1,2.3610883E-3,2.4580516E-1,-3.178918E-1],"categories":[],"categories_nodes":[],"categories_segments":[],"categories_sizes":[],"default_left":[0,0,0,0,0,0,0,0,0,0,0,0,0,0,0,0,0,0,0,0,0,0,0,0,0,0,0,0,0,0,0,0,0,0,0,0,0,0,0,0,0,0,0,0,0,0,0,0,0,0,0,0,0,0,0,0,0,0,0,0,0],"id":8,"left_children":[1,3,5,7,9,11,13,15,17,19,21,23,25,27,29,-1,31,-1,33,-1,-1,35,37,-1,39,-1,-1,-1,-1,41,-1,-1,43,45,47,49,51,53,55,-1,57,-1,59,-1,-1,-1,-1,-1,-1,-1,-1,-1,-1,-1,-1,-1,-1,-1,-1,-1,-1],"loss_changes":[7.6480304E2,7.870904E2,4.712926E2,3.7517435E2,2.4676948E3,6.744385E0,1.6884238E2,9.012665E1,3.3924954E2,2.861328E-1,3.5943872E2,5.4367676E0,2.9342873E0,1.6977386E0,5.300866E1,0E0,6.7040504E1,0E0,3.2616858E2,0E0,0E0,1.3658685E2,2.978608E2,0E0,6.443924E0,0E0,0E0,0E0,0E0,3.8000885E1,0E0,0E0,3.9115368E1,2.1013637E2,1.4804453E2,2.4437256E2,1.0649939E2,2.856385E2,1.8098907E1,0E0,5.8644557E-1,0E0,2.8330185E1,0E0,0E0,0E0,0E0,0E0,0E0,0E0,0E0,0E0,0E0,0E0,0E0,0E0,0E0,0E0,0E0,0E0,0E0],"parents":[2147483647,0,0,1,1,2,2,3,3,4,4,5,5,6,6,7,7,8,8,9,9,10,10,11,11,12,12,13,13,14,14,16,16,18,18,21,21,22,22,24,24,29,29,32,32,33,33,34,34,35,35,36,36,37,37,38,38,40,40,42,42],"right_children":[2,4,6,8,10,12,14,16,18,20,22,24,26,28,30,-1,32,-1,34,-1,-1,36,38,-1,40,-1,-1,-1,-1,42,-1,-1,44,46,48,50,52,54,56,-1,58,-1,60,-1,-1,-1,-1,-1,-1,-1,-1,-1,-1,-1,-1,-1,-1,-1,-1,-1,-1],"split_conditions":[3E0,1.0135008E0,2.054906E-2,1.7392878E-1,2E0,3.1039223E1,4.6027117E4,4.9659973E-3,1E0,3.4325543E-1,2.2527307E-1,1.7047686E4,6.344292E1,5.75083E1,3E0,-3.1034845E-1,4.6165727E4,3.3252645E-1,2.8E1,3.4561664E-1,3.300842E-1,7.7352256E-1,4.0388546E0,-3.1039557E-1,6.019482E1,-1.9229074E-1,2.2792119E-1,-3.075649E-1,3.8761266E-2,6.84E2,-2.9762802E-1,-3.080328E-1,4.6776203E4,4.301074E0,7.9963885E2,1.7240691E-1,1.9468695E-2,2E0,7.6E1,-2.754224E-1,9.789052E-1,-3.2324007E-1,6.4558263E0,2.991302E-1,-6.539283E-2,-2.2234648E-1,4.197868E-2,-2.3660044E-1,-2.9164648E-3,-1.8297519E-1,4.4007322E-1,-3.0376053E-1,-1.1985472E-1,7.218206E-2,-8.9766994E-2,-4.0783653E-1,-1.1805237E-1,2.3715366E-1,2.3610883E-3,2.4580516E-1,-3.178918E-1],"split_indices":[2,2,19,2,2,25,13,23,2,29,33,9,10,10,14,0,13,0,34,0,0,32,32,0,10,0,0,0,0,27,0,0,13,34,12,31,1,30,34,0,23,0,11,0,0,0,0,0,0,0,0,0,0,0,0,0,0,0,0,0,0],"split_type":[0,0,0,0,0,0,0,0,0,0,0,0,0,0,0,0,0,0,0,0,0,0,0,0,0,0,0,0,0,0,0,0,0,0,0,0,0,0,0,0,0,0,0,0,0,0,0,0,0,0,0,0,0,0,0,0,0,0,0,0,0],"sum_hessian":[1.50207705E4,1.3521942E4,1.4988278E3,4.706407E3,8.815535E3,1.1048208E3,3.94007E2,8.4804626E2,3.8583608E3,2.3203875E3,6.495148E3,1.1006243E3,4.196542E0,8.305876E1,3.109482E2,6.722899E2,1.7575635E2,2.070585E2,3.6513025E3,1.096306E3,1.2240814E3,1.3954889E3,5.0996587E3,1.0912698E3,9.35447E0,1.6220299E0,2.574512E0,8.197927E1,1.0794902E0,2.9190634E2,1.9041868E1,6.502003E1,1.1073632E2,2.324171E3,1.3271315E3,2.4118382E2,1.154305E3,4.9251343E3,1.7452469E2,5.1153665E0,4.2391033E0,1.07966175E1,2.8110974E2,4.1728035E1,6.900828E1,3.1173077E2,2.0124402E3,1.004977E3,3.2215442E2,1.5229663E2,8.888721E1,5.051037E2,6.4920135E2,3.57593E3,1.3492042E3,1.5113808E2,2.3386606E1,2.9484596E0,1.2906439E0,2.7366824E2,7.441495E0],"tree_param":{"num_deleted":"0","num_feature":"35","num_nodes":"61","size_leaf_vector":"1"}},{"base_weights":[-8.146794E-3,-1.8228656E-1,2.4744849E-1,4.271418E-2,-6.368027E-1,1.3509737E0,-1.391148E-1,-3.2456955E-1,1.1834657E0,-5.0332415E-1,-1.0546072E0,1.4615327E0,3.408992E-1,-8.288403E-1,2.0702286E-1,-7.654378E-1,-1.9239241E-1,1.9023793E0,1.1661632E0,-1.0296539E0,-2.805193E-1,-1.2488207E0,-1.0194173E-1,1.5675659E0,3.592482E-1,-1.1357886E0,-5.350737E-1,1.3591026E0,-2.2842818E-1,3.317322E-1,-8.477051E-1,1.8097316E0,-2.4628524E-1,5.870982E-1,2.4552043E-1,1.5009234E0,1.1480944E0,-1.1221056E0,-4.6612266E-1,-3.7821606E-1,5.9164107E-1,-1.3068316E0,-8.5387355E-1,8.595285E-1,-1.0861006E0,1.9582356E0,1.4469692E0,-4.5250633E-1,-1.1870892E0,1.1947054E0,-6.0333025E-1,1.4867754E0,3.4211975E-1,-9.639873E-1,1.7381951E-1,-3.1691128E-1,4.382128E-1,-3.404107E-1,-1.9777302E-1,4.904571E-1,9.2360383E-1,-4.8437685E-2,-2.9657835E-1,4.9088848E-1,3.3837798E-1,3.6812654E-1,3.3576894E-1,-3.3982542E-1,3.140022E-1,3.971764E-1,-2.2529587E-1,-8.348566E-2,-3.6244088E-1,3.2248697E-1,-1.7623082E-1,-3.4655285E-1,-4.2126963E-1,3.0485138E-1,-3.0646196E-1,-3.6124283E-1,4.3596432E-1,-4.1394624E-1,-9.813755E-2,7.1558094E-1,5.596542E-1,3.321484E-1,4.9867994E-1,-4.0243396E-1,2.6181334E-1,-3.5964146E-1,2.73893E-1,5.7016534E-1,-2.6600218E-1,-3.9076988E-2,-2.5769222E-1,5.102899E-1,4.1778576E-1,-3.6106655E-1,-2.4696253E-1,4.1484374E-1,-8.899066E-2],"categories":[],"categories_nodes":[],"categories_segments":[],"categories_sizes":[],"default_left":[0,0,0,0,0,0,0,0,0,0,0,0,0,0,0,0,0,0,0,0,0,0,0,0,0,0,0,0,0,0,0,0,0,0,0,0,0,0,0,0,0,0,0,0,0,0,0,0,0,0,0,0,0,0,0,0,0,0,0,0,0,0,0,0,0,0,0,0,0,0,0,0,0,0,0,0,0,0,0,0,0,0,0,0,0,0,0,0,0,0,0,0,0,0,0,0,0,0,0,0,0],"id":9,"left_children":[1,3,5,7,9,11,13,15,17,19,21,23,-1,25,27,29,31,33,35,37,39,41,43,45,-1,47,49,51,53,55,57,59,61,-1,-1,63,65,67,69,71,73,75,77,79,81,83,85,87,89,91,93,95,-1,97,99,-1,-1,-1,-1,-1,-1,-1,-1,-1,-1,-1,-1,-1,-1,-1,-1,-1,-1,-1,-1,-1,-1,-1,-1,-1,-1,-1,-1,-1,-1,-1,-1,-1,-1,-1,-1,-1,-1,-1,-1,-1,-1,-1,-1,-1,-1],"loss_changes":[6.067675E2,8.292197E2,2.356716E3,2.2730679E3,1.4919641E2,3.2350098E1,9.770968E2,2.3900473E2,1.4217407E1,2.3855017E2,1.1997803E2,2.450879E1,0E0,1.22706726E2,1.3675969E3,8.569409E1,3.4127298E2,1.4302826E-1,6.0968018E0,3.1016235E1,1.22267105E2,1.1236328E1,1.05981155E2,2.869458E1,0E0,2.2874084E1,8.344858E1,1.9182617E1,5.856274E2,1.0610772E2,4.687982E1,1.3366669E1,1.9357901E2,0E0,0E0,1.3331299E0,1.4332275E0,1.317627E1,4.537175E1,1.0653636E2,8.307472E1,5.293762E0,2.3591915E1,7.1233665E1,1.1876984E1,1.6882324E0,3.5849365E1,5.8021336E1,1.6364014E1,4.125533E1,8.149007E1,7.0860596E0,0E0,2.2606995E1,7.2846545E2,0E0,0E0,0E0,0E0,0E0,0E0,0E0,0E0,0E0,0E0,0E0,0E0,0E0,0E0,0E0,0E0,0E0,0E0,0E0,0E0,0E0,0E0,0E0,0E0,0E0,0E0,0E0,0E0,0E0,0E0,0E0,0E0,0E0,0E0,0E0,0E0,0E0,0E0,0E0,0E0,0E0,0E0,0E0,0E0,0E0,0E0],"parents":[2147483647,0,0,1,1,2,2,3,3,4,4,5,5,6,6,7,7,8,8,9,9,10,10,11,11,13,13,14,14,15,15,16,16,17,17,18,18,19,19,20,20,21,21,22,22,23,23,25,25,26,26,27,27,28,28,29,29,30,30,31,31,32,32,35,35,36,36,37,37,38,38,39,39,40,40,41,41,42,42,43,43,44,44,45,45,46,46,47,47,48,48,49,49,50,50,51,51,53,53,54,54],"right_children":[2,4,6,8,10,12,14,16,18,20,22,24,-1,26,28,30,32,34,36,38,40,42,44,46,-1,48,50,52,54,56,58,60,62,-1,-1,64,66,68,70,72,74,76,78,80,82,84,86,88,90,92,94,96,-1,98,100,-1,-1,-1,-1,-1,-1,-1,-1,-1,-1,-1,-1,-1,-1,-1,-1,-1,-1,-1,-1,-1,-1,-1,-1,-1,-1,-1,-1,-1,-1,-1,-1,-1,-1,-1,-1,-1,-1,-1,-1,-1,-1,-1,-1,-1,-1],"split_conditions":[1.0151852E0,1E0,2E0,2.8355107E-2,2E0,1.3686752E-2,2.027543E0,1.4256225E-2,3.4325543E-1,3.4274513E-1,5.5474215E4,3.4325543E-1,3.408992E-1,4.362508E4,3E0,6.260227E2,1E0,1.6E1,1.1440357E-1,5.0401936E0,8.9119965E2,5.0401936E0,2.4282639E-1,1.0135008E0,3.592482E-1,3.1085562E4,4.3690605E4,9.059763E-3,3.116724E0,3.0344367E0,4.321108E4,6E0,2.657985E4,5.870982E-1,2.4552043E-1,4.787666E-3,1.0135008E0,1.0108485E0,6E0,6.4558263E0,4.3520622E1,1.7511803E0,6E0,1.3622865E-1,6.5465414E4,8.908001E-1,2E0,3.0949076E4,3.4325543E-1,1.1549345E1,2E0,1.0135008E0,3.4211975E-1,3.1505887E2,4E0,-3.1691128E-1,4.382128E-1,-3.404107E-1,-1.9777302E-1,4.904571E-1,9.2360383E-1,-4.8437685E-2,-2.9657835E-1,4.9088848E-1,3.3837798E-1,3.6812654E-1,3.3576894E-1,-3.3982542E-1,3.140022E-1,3.971764E-1,-2.2529587E-1,-8.348566E-2,-3.6244088E-1,3.2248697E-1,-1.7623082E-1,-3.4655285E-1,-4.2126963E-1,3.0485138E-1,-3.0646196E-1,-3.6124283E-1,4.3596432E-1,-4.1394624E-1,-9.813755E-2,7.1558094E-1,5.596542E-1,3.321484E-1,4.9867994E-1,-4.0243396E-1,2.6181334E-1,-3.5964146E-1,2.73893E-1,5.7016534E-1,-2.6600218E-1,-3.9076988E-2,-2.5769222E-1,5.102899E-1,4.1778576E-1,-3.6106655E-1,-2.4696253E-1,4.1484374E-1,-8.899066E-2],"split_indices":[30,30,30,30,4,0,30,4,29,33,13,29,0,13,30,12,4,25,21,21,5,21,33,2,0,13,13,0,30,14,13,21,6,0,0,0,2,4,21,11,10,2,21,33,13,11,2,13,29,34,14,2,0,5,30,0,0,0,0,0,0,0,0,0,0,0,0,0,0,0,0,0,0,0,0,0,0,0,0,0,0,0,0,0,0,0,0,0,0,0,0,0,0,0,0,0,0,0,0,0,0],"split_type":[0,0,0,0,0,0,0,0,0,0,0,0,0,0,0,0,0,0,0,0,0,0,0,0,0,0,0,0,0,0,0,0,0,0,0,0,0,0,0,0,0,0,0,0,0,0,0,0,0,0,0,0,0,0,0,0,0,0,0,0,0,0,0,0,0,0,0,0,0,0,0,0,0,0,0,0,0,0,0,0,0,0,0,0,0,0,0,0,0,0,0,0,0,0,0,0,0,0,0,0,0],"sum_hessian":[1.3630362E4,8.107157E3,5.523205E3,5.423332E3,2.6838252E3,1.4321995E3,4.0910056E3,4.103014E3,1.3203175E3,2.0356791E3,6.481461E2,9.4146E2,4.907394E2,1.3665593E3,2.7244463E3,9.452854E2,3.157729E3,2.8469534E1,1.291848E3,6.043672E2,1.4313119E3,5.3813025E2,1.1001589E2,6.681903E2,2.732697E2,6.6688446E2,6.996748E2,7.4671893E2,1.9777273E3,6.572339E1,8.79562E2,8.191718E1,3.0758118E3,2.6337189E1,2.1323438E0,6.1954357E1,1.2298937E3,5.183385E2,8.6028656E1,1.2876406E3,1.4367123E2,4.6719803E2,7.0932205E1,5.571347E1,5.430242E1,1.540173E2,5.14173E2,4.725871E1,6.196258E2,2.5934374E1,6.737404E2,4.6782053E2,2.7889844E2,6.9869025E2,1.279037E3,2.9507528E1,3.6215862E1,3.4664935E2,5.3291266E2,7.400664E1,7.910552E0,2.7614668E3,3.1434506E2,4.297176E1,1.8982597E1,3.180284E2,9.1186523E2,5.16282E2,2.0565512E0,1.1310081E1,7.4718575E1,1.1504504E3,1.3719019E2,1.0196363E2,4.1707603E1,1.8774055E2,2.794575E2,5.420018E0,6.551219E1,1.2217343E1,4.3496128E1,3.8561348E1,1.5741075E1,2.306509E1,1.3095221E2,2.0180405E2,3.1236896E2,2.8277948E1,1.898076E1,6.1661505E2,3.0107346E0,1.943155E1,6.5028243E0,2.3688666E2,4.3685376E2,1.3764172E2,3.301788E2,2.5581406E2,4.4287622E2,3.5774673E2,9.212903E2],"tree_param":{"num_deleted":"0","num_feature":"35","num_nodes":"101","size_leaf_vector":"1"}},{"base_weights":[-1.1688238E-3,5.679519E-2,-6.729753E-1,-8.350507E-1,1.0299384E-1,-1.011408E0,1.9204704E-1,-3.0599976E-1,-2.1232335E-1,-2.2548749E-1,2.1654242E-1,-1.0178007E0,-4.185091E-1,-3.0091414E-1,4.7849634E-1,5.9145457E-1,-6.6798615E-1,-3.6179915E-1,1.0594743E0,1.4499749E0,7.897386E-3,-3.0651438E-1,-7.3156613E-1,1.9751793E-1,-2.6956818E-1,9.078269E-1,2.1436555E-2,-2.7505052E-1,8.8292307E-1,-9.6714497E-1,3.7163457E-1,-4.9737936E-1,3.970446E-1,-3.7726605E-1,1.1609728E0,1.7890636E0,1.3333693E0,8.38728E-2,-7.3063046E-1,1.9711727E-1,-2.9875848E-1,-2.9318008E-1,9.981277E-1,8.864717E-1,-1.0604422E0,-4.324746E-1,2.9644024E-1,-2.9610094E-1,3.2090477E-3,3.2241288E-1,-2.6749492E-1,-3.709192E-2,-2.785973E-1,2.8846762E-1,-1.5932675E-1,4.0065637E-1,3.3657455E-1,7.5424665E-1,4.6534666E-1,4.336691E-1,3.3663076E-1,-1.07325576E-1,6.165034E-2,-3.1976628E-1,-8.341835E-2,3.0698407E-1,-2.0235288E-1,3.0486676E-1,-2.6512355E-1,1.8196204E-1,-3.3539438E-1],"categories":[],"categories_nodes":[],"categories_segments":[],"categories_sizes":[],"default_left":[0,0,0,0,0,0,0,0,0,0,0,0,0,0,0,0,0,0,0,0,0,0,0,0,0,0,0,0,0,0,0,0,0,0,0,0,0,0,0,0,0,0,0,0,0,0,0,0,0,0,0,0,0,0,0,0,0,0,0,0,0,0,0,0,0,0,0,0,0,0,0],"id":10,"left_children":[1,3,5,7,9,11,13,-1,15,17,19,21,23,-1,25,27,29,31,33,35,37,-1,39,-1,-1,41,43,-1,45,47,49,51,53,-1,55,57,59,61,63,-1,-1,-1,65,67,69,-1,-1,-1,-1,-1,-1,-1,-1,-1,-1,-1,-1,-1,-1,-1,-1,-1,-1,-1,-1,-1,-1,-1,-1,-1,-1],"loss_changes":[4.711177E2,4.5897162E2,2.8151285E2,6.2970245E1,3.9503394E2,2.192688E0,9.32782E1,0E0,4.6869633E1,4.769457E2,2.025333E3,1.739502E-2,5.2794666E0,0E0,4.3021805E1,2.122529E1,2.5692142E1,2.5335422E2,6.288794E1,4.2636475E1,3.7781348E2,0E0,5.3269897E0,0E0,0E0,2.0224068E1,1.013244E2,0E0,1.1067215E1,1.244175E0,1.776582E1,3.3644995E2,1.9622655E2,0E0,2.1124268E-1,4.5857544E1,1.8554321E1,3.2801245E2,9.500113E1,0E0,0E0,0E0,5.2508087E0,1.4713779E1,5.293007E0,0E0,0E0,0E0,0E0,0E0,0E0,0E0,0E0,0E0,0E0,0E0,0E0,0E0,0E0,0E0,0E0,0E0,0E0,0E0,0E0,0E0,0E0,0E0,0E0,0E0,0E0],"parents":[2147483647,0,0,1,1,2,2,3,3,4,4,5,5,6,6,8,8,9,9,10,10,11,11,12,12,14,14,15,15,16,16,17,17,18,18,19,19,20,20,22,22,25,25,26,26,28,28,29,29,30,30,31,31,32,32,34,34,35,35,36,36,37,37,38,38,42,42,43,43,44,44],"right_children":[2,4,6,8,10,12,14,-1,16,18,20,22,24,-1,26,28,30,32,34,36,38,-1,40,-1,-1,42,44,-1,46,48,50,52,54,-1,56,58,60,62,64,-1,-1,-1,66,68,70,-1,-1,-1,-1,-1,-1,-1,-1,-1,-1,-1,-1,-1,-1,-1,-1,-1,-1,-1,-1,-1,-1,-1,-1,-1,-1],"split_conditions":[3E0,1.7392878E-1,2.016316E0,4.9659973E-3,1.0495807E0,5.390575E2,4.5826348E4,-3.0599976E-1,6.523362E2,7.19042E4,2E0,1.3072593E-2,5.9751324E2,-3.0091414E-1,6.49647E2,1.3078134E4,8.1626166E2,8.1626166E2,4.787666E-3,2.8355107E-2,6.8010592E0,-3.0651438E-1,7.4748886E-1,1.9751793E-1,-2.6956818E-1,1.3073268E4,4.756595E1,-2.7505052E-1,6.464563E2,3.3154043E4,8.164435E2,1E0,8.2444604E2,-3.7726605E-1,5.7620943E-2,1.0135008E0,3.4325543E-1,1.6590621E0,1.0151852E0,1.9711727E-1,-2.9875848E-1,-2.9318008E-1,5.724456E2,4.6700188E4,7.3893064E-1,-4.324746E-1,2.9644024E-1,-2.9610094E-1,3.2090477E-3,3.2241288E-1,-2.6749492E-1,-3.709192E-2,-2.785973E-1,2.8846762E-1,-1.5932675E-1,4.0065637E-1,3.3657455E-1,7.5424665E-1,4.6534666E-1,4.336691E-1,3.3663076E-1,-1.07325576E-1,6.165034E-2,-3.1976628E-1,-8.341835E-2,3.0698407E-1,-2.0235288E-1,3.0486676E-1,-2.6512355E-1,1.8196204E-1,-3.3539438E-1],"split_indices":[2,2,25,23,14,28,13,0,12,13,14,25,12,0,12,6,12,12,0,30,11,0,0,0,0,6,10,0,27,9,12,1,12,0,30,2,29,11,30,0,0,0,5,13,0,0,0,0,0,0,0,0,0,0,0,0,0,0,0,0,0,0,0,0,0,0,0,0,0,0,0],"split_type":[0,0,0,0,0,0,0,0,0,0,0,0,0,0,0,0,0,0,0,0,0,0,0,0,0,0,0,0,0,0,0,0,0,0,0,0,0,0,0,0,0,0,0,0,0,0,0,0,0,0,0,0,0,0,0,0,0,0,0,0,0,0,0,0,0,0,0,0,0,0,0],"sum_hessian":[1.2096387E4,1.113644E4,9.599458E2,5.476281E2,1.05888125E4,6.8987054E2,2.7007526E2,4.2173575E2,1.2589239E2,2.7197996E3,7.8690127E3,6.8180255E2,8.067981E0,5.1734066E1,2.1834119E2,4.5439762E1,8.045263E1,2.4595984E3,2.6020132E2,1.1376566E3,6.731356E3,6.700708E2,1.1731782E1,2.3730345E0,5.6949463E0,1.1207726E2,1.0626392E2,7.011438E0,3.8428326E1,6.2529114E1,1.7923517E1,2.0870552E3,3.7254306E2,1.0441889E1,2.4975943E2,2.8743994E2,8.5021674E2,6.104271E3,6.2708514E2,1.6382495E0,1.0093533E1,4.6743555E0,1.0740291E2,5.9150066E1,4.7113853E1,1.1140049E0,3.731432E1,6.1275356E1,1.2537565E0,1.1610835E1,6.3126817E0,1.118803E3,9.6825226E2,2.316262E2,1.4091685E2,3.9598965E1,2.1016046E2,6.864802E1,2.1879192E2,5.514984E2,2.9871832E2,1.3177312E3,4.7865396E3,3.594525E2,2.6763266E2,1.0619423E2,1.2086794E0,5.5507492E1,3.642576E0,1.2536114E0,4.586024E1],"tree_param":{"num_deleted":"0","num_feature":"35","num_nodes":"71","size_leaf_vector":"1"}},{"base_weights":[-1.3438567E-3,1.11293115E-1,-3.1416196E-1,-6.2841E-2,1.2937448E0,-5.945125E-1,-2.857894E-2,1.5558505E-1,-3.1219637E-1,1.2593291E0,1.7837896E0,-9.787415E-1,-4.62905E-1,1.3148165E0,-4.8032123E-1,-2.1207471E-1,1.3214393E0,1.0231138E0,-4.226537E-1,1.4070936E0,1.2003791E0,2.5382738E0,1.3599422E0,-1.3780731E-1,-1.0331016E0,-1.8546212E-1,-7.6049006E-1,1.5439156E0,1.2689562E0,-2.4932963E-1,-8.7608194E-1,-3.2921827E-1,1.0093997E0,1.5267035E0,1.2452525E0,-3.429849E-1,1.132086E0,-3.2375762E-1,-1.1821676E0,5.025845E-1,1.3237203E0,3.187301E-1,1.2922169E0,2.679377E0,2.431589E-1,4.783544E-1,3.451059E-1,6.010266E-1,-3.280454E-1,-1.0543482E0,4.74554E-1,-3.339932E-1,3.391205E-1,2.3337767E-2,-8.22666E-1,4.0416604E-1,5.430985E-1,1.3480182E0,3.286928E-1,-5.276729E-1,1.5588029E-1,-9.5313287E-1,-9.145578E-2,-1.2961383E-1,1.370365E-1,-3.3435214E-1,3.3110017E-1,5.3886014E-1,4.2405233E-1,3.972529E-1,3.2637164E-1,3.8376912E-1,3.2769313E-1,-1.2162112E-1,3.4808815E-1,-1.5916505E-1,-4.1465124E-1,4.3029934E-1,3.35795E-1,4.2520317E-1,3.6785322E-1,2.583704E-1,8.237184E-1,-2.671051E-1,3.2309377E-1,-3.2544786E-1,-1.0931364E-1,-2.0960253E-1,2.9199427E-1,-2.9927355E-1,-2.0475267E-2,-3.1642783E-1,2.7318856E-1,-8.761299E-2,-2.748916E-1,3.7109217E-1,4.3314722E-1,-9.2945114E-2,-3.4733918E-1,1.8901642E-1,-1.2529854E-1,-3.3018544E-1,-1.7744295E-1,3.3943272E-1,-2.533476E-1],"categories":[],"categories_nodes":[],"categories_segments":[],"categories_sizes":[],"default_left":[0,0,0,0,0,0,0,0,0,0,0,0,0,0,0,0,0,0,0,0,0,0,0,0,0,0,0,0,0,0,0,0,0,0,0,0,0,0,0,0,0,0,0,0,0,0,0,0,0,0,0,0,0,0,0,0,0,0,0,0,0,0,0,0,0,0,0,0,0,0,0,0,0,0,0,0,0,0,0,0,0,0,0,0,0,0,0,0,0,0,0,0,0,0,0,0,0,0,0,0,0,0,0,0,0],"id":11,"left_children":[1,3,5,7,9,11,13,15,17,19,21,23,25,27,29,31,33,35,37,39,41,43,45,47,49,51,53,55,57,59,61,63,65,67,69,-1,71,73,75,-1,77,-1,79,81,-1,-1,-1,83,-1,85,87,89,-1,91,93,-1,-1,95,-1,97,99,101,103,-1,-1,-1,-1,-1,-1,-1,-1,-1,-1,-1,-1,-1,-1,-1,-1,-1,-1,-1,-1,-1,-1,-1,-1,-1,-1,-1,-1,-1,-1,-1,-1,-1,-1,-1,-1,-1,-1,-1,-1,-1,-1],"loss_changes":[3.9427734E2,1.6941653E3,2.371695E2,3.9069574E2,1.5565674E1,7.513953E1,8.918773E2,1.6393726E3,4.9445044E2,6.9365234E0,1.7943115E1,1.7251434E1,9.194856E1,1.9265747E0,1.0031883E2,4.164355E2,1.24383545E1,6.177426E1,2.3203223E2,3.966858E0,7.680786E0,3.4138489E0,3.7776947E-1,1.7784695E1,1.1943787E1,1.1345346E2,2.6230743E1,5.5166626E-1,2.8224792E0,7.856408E1,2.4392914E1,2.147265E2,5.2230865E1,4.897827E0,6.9312744E0,0E0,3.326416E-2,3.3235934E2,4.567575E1,0E0,3.272644E0,0E0,1.769104E0,1.3821411E-1,0E0,0E0,0E0,1.1127707E1,0E0,7.0191956E0,3.9885697E0,9.174328E1,0E0,3.970218E1,2.4493317E1,0E0,0E0,4.6017456E-1,0E0,5.629802E1,7.753152E1,1.9010193E1,3.5317627E1,0E0,0E0,0E0,0E0,0E0,0E0,0E0,0E0,0E0,0E0,0E0,0E0,0E0,0E0,0E0,0E0,0E0,0E0,0E0,0E0,0E0,0E0,0E0,0E0,0E0,0E0,0E0,0E0,0E0,0E0,0E0,0E0,0E0,0E0,0E0,0E0,0E0,0E0,0E0,0E0,0E0,0E0],"parents":[2147483647,0,0,1,1,2,2,3,3,4,4,5,5,6,6,7,7,8,8,9,9,10,10,11,11,12,12,13,13,14,14,15,15,16,16,17,17,18,18,19,19,20,20,21,21,22,22,23,23,24,24,25,25,26,26,27,27,28,28,29,29,30,30,31,31,32,32,33,33,34,34,36,36,37,37,38,38,40,40,42,42,43,43,47,47,49,49,50,50,51,51,53,53,54,54,57,57,59,59,60,60,61,61,62,62],"right_children":[2,4,6,8,10,12,14,16,18,20,22,24,26,28,30,32,34,36,38,40,42,44,46,48,50,52,54,56,58,60,62,64,66,68,70,-1,72,74,76,-1,78,-1,80,82,-1,-1,-1,84,-1,86,88,90,-1,92,94,-1,-1,96,-1,98,100,102,104,-1,-1,-1,-1,-1,-1,-1,-1,-1,-1,-1,-1,-1,-1,-1,-1,-1,-1,-1,-1,-1,-1,-1,-1,-1,-1,-1,-1,-1,-1,-1,-1,-1,-1,-1,-1,-1,-1,-1,-1,-1,-1],"split_conditions":[3E0,2.0172818E0,3.0344367E0,2E0,6E0,2.6450753E-1,4E0,1.0495807E0,5.9751324E2,1.0135008E0,5.41E2,1.96E2,9.993414E-1,2.8355107E-2,4.756595E1,7.19042E4,2.8355107E-2,4.787666E-3,2E0,2.8355107E-2,2E0,7.9539645E-1,7.451836E2,4.786595E1,8.212372E2,1.9468695E-2,3.0269636E1,7.2850174E1,3.4325543E-1,3.83824E4,1.0062934E0,4.0697027E4,4.787666E-3,1.0135008E0,3.4325543E-1,-3.429849E-1,2.8355107E-2,4.787666E-3,9.92332E-1,5.025845E-1,3.4325543E-1,3.187301E-1,1.9468695E-2,1.1549345E1,2.431589E-1,4.783544E-1,3.451059E-1,1.0094836E0,-3.280454E-1,7.547695E1,1.7515482E1,2.316918E0,3.391205E-1,1.0151852E0,-1.7519997E0,4.0416604E-1,5.430985E-1,2E0,3.286928E-1,3.687572E4,4.5358555E4,5.4081457E4,9.971273E-1,-1.2961383E-1,1.370365E-1,-3.3435214E-1,3.3110017E-1,5.3886014E-1,4.2405233E-1,3.972529E-1,3.2637164E-1,3.8376912E-1,3.2769313E-1,-1.2162112E-1,3.4808815E-1,-1.5916505E-1,-4.1465124E-1,4.3029934E-1,3.35795E-1,4.2520317E-1,3.6785322E-1,2.583704E-1,8.237184E-1,-2.671051E-1,3.2309377E-1,-3.2544786E-1,-1.0931364E-1,-2.0960253E-1,2.9199427E-1,-2.9927355E-1,-2.0475267E-2,-3.1642783E-1,2.7318856E-1,-8.761299E-2,-2.748916E-1,3.7109217E-1,4.3314722E-1,-9.2945114E-2,-3.4733918E-1,1.8901642E-1,-1.2529854E-1,-3.3018544E-1,-1.7744295E-1,3.3943272E-1,-2.533476E-1],"split_indices":[14,14,14,14,21,33,14,14,12,2,27,27,1,30,10,13,30,0,1,30,2,33,12,10,12,1,10,3,29,13,19,6,0,2,29,0,30,0,19,0,29,0,1,34,0,0,0,32,0,10,34,11,0,30,32,0,0,2,0,13,13,13,0,0,0,0,0,0,0,0,0,0,0,0,0,0,0,0,0,0,0,0,0,0,0,0,0,0,0,0,0,0,0,0,0,0,0,0,0,0,0,0,0,0,0],"split_type":[0,0,0,0,0,0,0,0,0,0,0,0,0,0,0,0,0,0,0,0,0,0,0,0,0,0,0,0,0,0,0,0,0,0,0,0,0,0,0,0,0,0,0,0,0,0,0,0,0,0,0,0,0,0,0,0,0,0,0,0,0,0,0,0,0,0,0,0,0,0,0,0,0,0,0,0,0,0,0,0,0,0,0,0,0,0,0,0,0,0,0,0,0,0,0,0,0,0,0,0,0,0,0,0,0],"sum_hessian":[1.11879795E4,8.226495E3,2.9614846E3,7.1713506E3,1.0551443E3,1.4938868E3,1.4675978E3,3.8229578E3,3.3483928E3,9.892402E2,6.590414E1,3.7949936E2,1.1143876E3,3.6883682E2,1.0987609E3,2.9070261E3,9.1593164E2,2.5518756E2,3.0932053E3,2.7558585E2,7.1365436E2,2.1911386E1,4.3992752E1,2.3256905E1,3.5624246E2,5.7755133E2,5.368362E2,5.6069805E1,3.12767E2,6.948383E2,4.039226E2,2.6532964E3,2.5372969E2,2.4278255E2,6.7314905E2,1.1766895E1,2.4342067E2,2.738104E3,3.551014E2,6.0827545E1,2.1475829E2,2.902507E2,4.2340366E2,1.9747807E1,2.1635814E0,1.7641058E1,2.6351692E1,1.3325818E1,9.9310875E0,3.5158838E2,4.6540775E0,5.196418E2,5.7909554E1,3.949996E1,4.973362E2,3.573968E1,2.0330126E1,2.1013155E2,1.0263545E2,4.1172058E2,2.831177E2,3.6760843E2,3.6314186E1,2.346739E3,3.0655737E2,1.0323E1,2.434067E2,6.7414246E1,1.753683E2,4.433524E2,2.2979669E2,4.5167652E1,1.98253E2,2.5960095E3,1.4209438E2,8.4253395E1,2.7084802E2,1.3544601E2,7.931227E1,1.3919853E2,2.842051E2,1.1875188E0,1.8560287E1,3.0132523E0,1.0312566E1,3.3616666E2,1.5421714E1,1.2687604E0,3.385317E0,1.4780469E2,3.718371E2,1.774738E1,2.1752584E1,7.521824E1,4.2211798E2,1.0376891E2,1.0636264E2,3.0705328E2,1.0466729E2,1.5493066E2,1.2818706E2,2.5967032E2,1.079381E2,1.364797E1,2.2666218E1],"tree_param":{"num_deleted":"0","num_feature":"35","num_nodes":"105","size_leaf_vector":"1"}},{"base_weights":[6.17606E-3,-2.205898E-1,1.4389373E-1,-6.669247E-1,-1.1615252E-1,1.2113072E0,-1.3782671E-1,-9.67845E-1,-5.049662E-1,1.4657234E0,-2.0882621E-1,1.3765768E0,1.1559335E0,-3.6681768E-1,2.3260942E-1,-1.0497422E0,-6.137623E-1,-3.2397327E-1,-1.0231117E0,1.7637651E0,1.2848194E0,-7.648964E-1,-1.16989836E-1,1.7464739E0,1.2553924E0,1.2790924E0,3.2874897E-1,-5.2702683E-1,-9.233547E-2,1.1448157E0,-3.415474E-2,-3.507185E-1,-9.5267993E-1,-9.253615E-1,2.962205E-1,-9.206565E-1,-1.7108537E-1,3.8336435E-1,-1.0650604E0,1.8659033E0,3.511628E-1,4.0540728E-1,3.2308054E-1,1.00284E0,-8.631371E-1,1.4145057E0,-2.8406292E-1,6.0175407E-1,4.2900604E-1,3.684029E-1,4.7318318E-1,3.206934E-1,4.1059572E-1,-5.5518156E-1,1.1287652E0,1.3851792E0,-3.6835483E-1,3.3531365E-1,4.1210234E-1,-7.3260194E-1,3.693435E-1,-2.1124911E-1,-3.2388815E-1,-3.4234944E-1,-1.0951965E-1,4.136124E-1,-2.9865107E-1,-3.283858E-1,1.2739128E-1,-2.883861E-1,5.7340595E-3,-2.2274384E-1,-3.5257053E-1,2.380088E-1,5.717356E-1,-3.5173556E-1,8.2642055E-1,-2.7493066E-1,3.3437258E-1,5.324939E-1,3.958019E-1,-2.8063434E-1,-3.0981787E-2,-1.2035004E-1,-2.4769042E-1,5.508889E-1,-9.66389E-2,5.2655673E-1,3.9624393E-1,-2.8420594E-1,-1.0427581E-2,-3.1925115E-1,-5.752609E-2,2.9015172E-1,-4.621157E-2],"categories":[],"categories_nodes":[],"categories_segments":[],"categories_sizes":[],"default_left":[0,0,0,0,0,0,0,0,0,0,0,0,0,0,0,0,0,0,0,0,0,0,0,0,0,0,0,0,0,0,0,0,0,0,0,0,0,0,0,0,0,0,0,0,0,0,0,0,0,0,0,0,0,0,0,0,0,0,0,0,0,0,0,0,0,0,0,0,0,0,0,0,0,0,0,0,0,0,0,0,0,0,0,0,0,0,0,0,0,0,0,0,0,0,0],"id":12,"left_children":[1,3,5,7,9,11,13,15,17,19,21,23,25,27,29,31,33,35,37,39,41,43,45,47,49,51,-1,53,55,57,59,-1,61,63,65,67,69,-1,71,73,-1,-1,-1,75,77,79,81,-1,-1,-1,-1,-1,-1,83,85,87,89,-1,-1,91,93,-1,-1,-1,-1,-1,-1,-1,-1,-1,-1,-1,-1,-1,-1,-1,-1,-1,-1,-1,-1,-1,-1,-1,-1,-1,-1,-1,-1,-1,-1,-1,-1,-1,-1],"loss_changes":[3.1306693E2,1.7648535E2,1.8756741E3,3.450531E1,4.5047125E2,1.0328247E1,4.187401E2,6.6093903E0,4.3640663E1,6.903351E0,1.4809158E2,1.2224915E1,5.866089E0,1.3409128E2,4.5899164E2,1.2227631E0,1.42803135E1,3.1676735E1,1.3032738E1,1.5454712E0,5.947876E-2,7.2260864E1,6.379216E2,3.436386E0,2.2979736E-1,4.4838867E0,0E0,9.041058E1,4.594992E2,1.1118774E0,4.118005E2,0E0,2.9199295E0,4.0618725E0,2.004974E1,1.706897E1,4.1952793E1,0E0,3.3674011E0,6.622467E-1,0E0,0E0,0E0,8.747687E1,4.213141E1,6.0711365E0,2.6455704E2,0E0,0E0,0E0,0E0,0E0,0E0,7.8578E1,3.398564E1,1.9058533E0,1.8328651E2,0E0,0E0,9.57424E1,2.8995496E2,0E0,0E0,0E0,0E0,0E0,0E0,0E0,0E0,0E0,0E0,0E0,0E0,0E0,0E0,0E0,0E0,0E0,0E0,0E0,0E0,0E0,0E0,0E0,0E0,0E0,0E0,0E0,0E0,0E0,0E0,0E0,0E0,0E0,0E0],"parents":[2147483647,0,0,1,1,2,2,3,3,4,4,5,5,6,6,7,7,8,8,9,9,10,10,11,11,12,12,13,13,14,14,15,15,16,16,17,17,18,18,19,19,20,20,21,21,22,22,23,23,24,24,25,25,27,27,28,28,29,29,30,30,32,32,33,33,34,34,35,35,36,36,38,38,39,39,43,43,44,44,45,45,46,46,53,53,54,54,55,55,56,56,59,59,60,60],"right_children":[2,4,6,8,10,12,14,16,18,20,22,24,26,28,30,32,34,36,38,40,42,44,46,48,50,52,-1,54,56,58,60,-1,62,64,66,68,70,-1,72,74,-1,-1,-1,76,78,80,82,-1,-1,-1,-1,-1,-1,84,86,88,90,-1,-1,92,94,-1,-1,-1,-1,-1,-1,-1,-1,-1,-1,-1,-1,-1,-1,-1,-1,-1,-1,-1,-1,-1,-1,-1,-1,-1,-1,-1,-1,-1,-1,-1,-1,-1,-1],"split_conditions":[1.9468695E-2,1.0683802E0,1E0,7.239305E2,2E0,1.0135008E0,4.9659973E-3,1.944E3,4.7E1,2.8355107E-2,2.0208611E0,1.0495807E0,2.8355107E-2,1.0151852E0,9.97145E-1,1.0103725E1,7.495916E1,2.119918E-1,-2.4275671E1,9.32307E2,3.4325543E-1,2.9211338E1,3E0,3.0763735E1,9.807125E-1,2E0,3.2874897E-1,8.415089E2,2E0,3.7696593E0,4.5826348E4,-3.507185E-1,1.5E1,5.2369188E4,4.152067E1,6.3957638E1,3.0763735E1,3.8336435E-1,2.3048448E2,1.9911118E0,3.511628E-1,4.0540728E-1,3.2308054E-1,6.565377E1,7.428654E4,2.8355107E-2,3.050308E0,6.0175407E-1,4.2900604E-1,3.684029E-1,4.7318318E-1,3.206934E-1,4.1059572E-1,1E0,6.041304E2,1.4132215E0,2.027543E0,3.3531365E-1,4.1210234E-1,3.4325543E-1,4.6776203E4,-2.1124911E-1,-3.2388815E-1,-3.4234944E-1,-1.0951965E-1,4.136124E-1,-2.9865107E-1,-3.283858E-1,1.2739128E-1,-2.883861E-1,5.7340595E-3,-2.2274384E-1,-3.5257053E-1,2.380088E-1,5.717356E-1,-3.5173556E-1,8.2642055E-1,-2.7493066E-1,3.3437258E-1,5.324939E-1,3.958019E-1,-2.8063434E-1,-3.0981787E-2,-1.2035004E-1,-2.4769042E-1,5.508889E-1,-9.66389E-2,5.2655673E-1,3.9624393E-1,-2.8420594E-1,-1.0427581E-2,-3.1925115E-1,-5.752609E-2,2.9015172E-1,-4.621157E-2],"split_indices":[1,21,1,12,21,2,23,27,34,30,21,14,30,30,23,22,34,33,33,5,29,10,21,31,1,2,0,12,30,26,13,0,22,13,31,10,31,0,5,2,0,0,0,31,6,30,21,0,0,0,0,0,0,30,5,11,30,0,0,29,13,0,0,0,0,0,0,0,0,0,0,0,0,0,0,0,0,0,0,0,0,0,0,0,0,0,0,0,0,0,0,0,0,0,0],"split_type":[0,0,0,0,0,0,0,0,0,0,0,0,0,0,0,0,0,0,0,0,0,0,0,0,0,0,0,0,0,0,0,0,0,0,0,0,0,0,0,0,0,0,0,0,0,0,0,0,0,0,0,0,0,0,0,0,0,0,0,0,0,0,0,0,0,0,0,0,0,0,0,0,0,0,0,0,0,0,0,0,0,0,0,0,0,0,0,0,0,0,0,0,0,0,0],"sum_hessian":[1.0022647E4,3.7867634E3,6.2358843E3,7.170238E2,3.0697395E3,1.301462E3,4.9344224E3,2.4914128E2,4.678825E2,1.6906699E2,2.9006726E3,3.206332E2,9.8082886E2,3.0493982E3,1.8850242E3,2.0074538E2,4.8395905E1,3.479616E2,1.199209E2,6.0553917E1,1.0851307E2,4.1011194E2,2.4905605E3,7.581316E1,2.4482005E2,3.150254E2,6.6580347E2,1.9249359E3,1.1244622E3,4.2577728E2,1.4592468E3,8.509411E1,1.1565127E2,3.6038567E1,1.2357337E1,6.994846E1,2.7801312E2,1.6195809E0,1.18301315E2,4.98292E1,1.0724718E1,7.8035446E1,3.0477623E1,2.1106966E1,3.8900497E2,2.4423987E2,2.2463208E3,3.8730362E1,3.70828E1,2.3006357E2,1.4756482E1,9.801369E1,2.1701169E2,1.8934056E3,3.1530344E1,1.7636621E2,9.4809595E2,3.8595294E2,3.982435E1,5.340323E2,9.252146E2,4.1316174E1,7.43351E1,2.5269182E1,1.0769383E1,6.686551E0,5.6707864E0,6.2104E1,7.844464E0,5.314838E1,2.2486475E2,3.2088467E1,8.621285E1,2.5354848E0,4.7293716E1,9.563241E0,1.1543726E1,3.7931912E2,9.68584E0,4.732582E1,1.9691405E2,4.8710696E2,1.7592139E3,1.207981E3,6.854246E2,2.1016157E1,1.0514188E1,2.2241526E1,1.541247E2,3.4590115E2,6.021948E2,3.3046942E2,2.0356284E2,4.31495E2,4.937196E2],"tree_param":{"num_deleted":"0","num_feature":"35","num_nodes":"95","size_leaf_vector":"1"}},{"base_weights":[1.0211368E-2,5.4358166E-2,-6.917602E-1,9.442292E-2,-6.750312E-1,-9.312553E-1,4.1917634E-1,-2.619709E-1,1.8454552E-1,-3.912832E-1,-1.0829444E0,1.2618707E-1,-9.745032E-1,-2.7810436E-1,6.059675E-1,-1.4014873E-1,-7.186507E-1,1.1874474E-2,4.410672E-1,-7.830842E-1,1.4074031E0,-1.1047785E0,-4.1509202E-1,-2.6521087E-1,8.2643944E-1,-9.948711E-1,-2.2951123E-1,-2.595638E-1,6.96394E-1,-2.0291036E-1,1.3750626E0,-4.2623982E-1,-9.63303E-1,-3.366755E-1,1.9772424E-1,3.5531454E-2,1.1401141E0,-8.771163E-1,9.862465E-2,1.5803381E0,3.240401E-1,-1.1172699E0,-4.6551287E-1,5.6994987E-1,-2.7276617E-1,2.747389E-1,-7.6737516E-3,-3.03395E-1,-6.7035246E-1,-2.6051518E-1,2.3659E-1,-7.1023166E-1,7.765604E-1,-3.1027108E-2,-2.924531E-1,4.7422624E-1,-4.831932E-2,-2.1997033E-1,3.183308E-1,-3.0947894E-1,1.3266891E-1,-6.2459935E-2,-2.4542703E-1,3.7218165E-1,-1.8049225E-2,-1.6661957E-1,5.380602E-2,4.352803E-1,3.3697635E-1,-1.7894056E-2,-2.7169764E-1,-2.9301676E-1,1.9953719E-1,4.9399292E-1,2.4722973E-1,-6.917476E-2,-3.3745098E-1,2.2074945E-1,-2.8918663E-1,4.3982586E-1,-1.8584248E-1,1.999599E-1,-2.462791E-1,-6.360394E-2,-2.3627287E-1,2.4665946E-1,-2.056124E-1],"categories":[],"categories_nodes":[],"categories_segments":[],"categories_sizes":[],"default_left":[0,0,0,0,0,0,0,0,0,0,0,0,0,0,0,0,0,0,0,0,0,0,0,0,0,0,0,0,0,0,0,0,0,0,0,0,0,0,0,0,0,0,0,0,0,0,0,0,0,0,0,0,0,0,0,0,0,0,0,0,0,0,0,0,0,0,0,0,0,0,0,0,0,0,0,0,0,0,0,0,0,0,0,0,0,0,0],"id":13,"left_children":[1,3,5,7,9,11,13,15,17,19,21,23,25,-1,27,29,31,33,35,37,39,41,43,-1,45,47,49,-1,51,53,55,57,59,61,63,65,67,69,71,73,-1,75,77,79,-1,-1,-1,-1,81,-1,-1,83,85,-1,-1,-1,-1,-1,-1,-1,-1,-1,-1,-1,-1,-1,-1,-1,-1,-1,-1,-1,-1,-1,-1,-1,-1,-1,-1,-1,-1,-1,-1,-1,-1,-1,-1],"loss_changes":[2.7754593E2,2.4629254E2,1.4138235E2,2.5661798E2,5.0371033E1,2.0073608E1,2.4366879E1,8.961882E1,2.8242914E2,1.8460078E2,2.158432E0,1.3482602E1,6.1329346E0,0E0,1.1742569E1,1.2146343E2,2.3866882E1,2.4700568E2,7.271898E2,1.786647E1,9.491348E-1,8.6283875E-1,4.0633698E0,0E0,8.733325E-1,1.49823E0,8.787222E0,0E0,9.509914E0,9.393796E1,1.6309883E1,7.2184265E1,1.8115723E1,8.184975E1,6.689393E2,1.3816406E2,3.30542E0,4.4698486E0,1.3787067E1,7.437897E-2,0E0,8.755188E-1,3.7233582E0,4.1568127E0,0E0,0E0,0E0,0E0,5.1034517E0,0E0,0E0,1.8213272E-2,5.6100197E0,0E0,0E0,0E0,0E0,0E0,0E0,0E0,0E0,0E0,0E0,0E0,0E0,0E0,0E0,0E0,0E0,0E0,0E0,0E0,0E0,0E0,0E0,0E0,0E0,0E0,0E0,0E0,0E0,0E0,0E0,0E0,0E0,0E0,0E0],"parents":[2147483647,0,0,1,1,2,2,3,3,4,4,5,5,6,6,7,7,8,8,9,9,10,10,11,11,12,12,14,14,15,15,16,16,17,17,18,18,19,19,20,20,21,21,22,22,24,24,25,25,26,26,28,28,29,29,30,30,31,31,32,32,33,33,34,34,35,35,36,36,37,37,38,38,39,39,41,41,42,42,43,43,48,48,51,51,52,52],"right_children":[2,4,6,8,10,12,14,16,18,20,22,24,26,-1,28,30,32,34,36,38,40,42,44,-1,46,48,50,-1,52,54,56,58,60,62,64,66,68,70,72,74,-1,76,78,80,-1,-1,-1,-1,82,-1,-1,84,86,-1,-1,-1,-1,-1,-1,-1,-1,-1,-1,-1,-1,-1,-1,-1,-1,-1,-1,-1,-1,-1,-1,-1,-1,-1,-1,-1,-1,-1,-1,-1,-1,-1,-1],"split_conditions":[3E0,2.2E1,1.0062934E0,5.1135507E0,2.3E1,5.9751324E2,4.6075934E4,1.4671011E4,3.4325543E-1,2.2273777E1,2.3896722E2,2.0040739E0,7.19042E4,-2.7810436E-1,1.9310062E0,1.4177648E4,2E0,1.0151852E0,2.8355107E-2,1.0060776E0,3.2472792E0,4.6994676E4,4.8480582E2,-2.6521087E-1,8.46E2,1.0060776E0,1.0060747E1,-2.595638E-1,3.0493463E2,4.8E1,7.65724E-1,1.0135008E0,2.7105549E1,2E0,2E0,1.4256225E-2,1.1440357E-1,8.009659E1,4.6075934E4,2E0,3.240401E-1,9.5E1,1.5113318E1,7.352985E2,-2.7276617E-1,2.747389E-1,-7.6737516E-3,-3.03395E-1,9.971273E-1,-2.6051518E-1,2.3659E-1,9.111644E0,1.0108485E0,-3.1027108E-2,-2.924531E-1,4.7422624E-1,-4.831932E-2,-2.1997033E-1,3.183308E-1,-3.0947894E-1,1.3266891E-1,-6.2459935E-2,-2.4542703E-1,3.7218165E-1,-1.8049225E-2,-1.6661957E-1,5.380602E-2,4.352803E-1,3.3697635E-1,-1.7894056E-2,-2.7169764E-1,-2.9301676E-1,1.9953719E-1,4.9399292E-1,2.4722973E-1,-6.917476E-2,-3.3745098E-1,2.2074945E-1,-2.8918663E-1,4.3982586E-1,-1.8584248E-1,1.999599E-1,-2.462791E-1,-6.360394E-2,-2.3627287E-1,2.4665946E-1,-2.056124E-1],"split_indices":[2,22,19,22,22,12,13,6,29,22,8,26,13,0,11,6,2,30,30,18,21,6,8,0,27,18,25,0,5,29,32,2,25,4,30,4,21,5,13,1,0,27,34,5,0,0,0,0,0,0,0,24,4,0,0,0,0,0,0,0,0,0,0,0,0,0,0,0,0,0,0,0,0,0,0,0,0,0,0,0,0,0,0,0,0,0,0],"split_type":[0,0,0,0,0,0,0,0,0,0,0,0,0,0,0,0,0,0,0,0,0,0,0,0,0,0,0,0,0,0,0,0,0,0,0,0,0,0,0,0,0,0,0,0,0,0,0,0,0,0,0,0,0,0,0,0,0,0,0,0,0,0,0,0,0,0,0,0,0,0,0,0,0,0,0,0,0,0,0,0,0,0,0,0,0,0,0],"sum_hessian":[8.95383E3,8.424912E3,5.2891785E2,7.98706E3,4.3785214E2,4.3524887E2,9.366898E1,1.6116826E3,6.3753774E3,2.593826E2,1.7846953E2,1.702629E1,4.1822256E2,1.0930536E1,8.273845E1,1.2733226E3,3.383599E2,3.8110872E3,2.5642903E3,2.1345184E2,4.5930767E1,1.7218602E2,6.283518E0,6.8629546E0,1.0163337E1,4.0676627E2,1.1456303E1,4.2949142E0,7.8443535E1,1.2235098E3,4.981296E1,1.5538474E2,1.8297516E2,1.3251107E3,2.4859766E3,1.6235035E3,9.407868E2,1.928862E2,2.0565634E1,2.7546068E1,1.8384699E1,1.6815254E2,4.033474E0,2.047799E0,4.2357187E0,9.130866E0,1.0324706E0,3.851326E2,2.1633654E1,7.1296372E0,4.326665E0,3.8058224E0,7.463771E1,1.0848308E3,1.3867886E2,4.3904922E1,5.9080377E0,1.2922011E2,2.616463E1,1.7475027E2,8.224893E0,1.0471018E3,2.780089E2,4.921099E2,1.9938666E3,3.1722797E2,1.3062755E3,4.4028614E1,8.967582E2,6.611777E0,1.8627443E2,6.8460684E0,1.3719564E1,2.424309E1,3.3029778E0,1.6891104E0,1.6646342E2,1.0431107E0,2.9903634E0,1.035233E0,1.0125661E0,1.8431336E0,1.979052E1,1.0141674E0,2.7916548E0,7.2802605E1,1.8351088E0],"tree_param":{"num_deleted":"0","num_feature":"35","num_nodes":"87","size_leaf_vector":"1"}},{"base_weights":[1.058305E-2,-8.3250594E-1,4.0613264E-2,-3.0218858E-1,-2.4053004E-1,2.3610531E-1,-9.970789E-2,-5.299904E-1,7.009127E-1,-9.265436E-2,3.2188845E-1,-6.369264E-1,-3.1597808E-2,-7.878511E-1,2.7071288E-1,3.025906E-1,-2.9192457E-1,-6.077984E-1,2.9270824E-2,-8.148389E-1,-1.1527916E-1,2.0110484E-2,-6.4510536E-1,5.7035846E-1,-3.0616593E-1,8.399616E-1,-2.4918047E-1,-1.055212E0,-4.4253838E-1,-7.7589184E-1,9.008324E-2,5.126219E-1,-8.7083566E-1,1.3899828E0,-4.3765327E-1,5.9157573E-2,-7.084645E-1,-9.874783E-1,2.1690218E-1,2.952758E-3,2.0493636E-1,-1.5503176E-1,3.2237145E-1,-3.250181E-1,-6.65545E-2,-9.8901324E-2,-3.4638304E-1,-3.1499374E-1,-1.2284685E-1,-2.7934474E-1,3.7699174E-2,-2.4343923E-1,2.957366E-1,-3.2401907E-1,-2.0669636E-1,4.5545325E-1,-1.9193757E-1,-2.7012858E-1,5.59843E-2,6.068543E-2,-4.973564E-2,-2.998309E-1,1.827204E-1,-2.991413E-1,5.8438044E-2,-2.807621E-1,1.24750465E-1],"categories":[],"categories_nodes":[],"categories_segments":[],"categories_sizes":[],"default_left":[0,0,0,0,0,0,0,0,0,0,0,0,0,0,0,0,0,0,0,0,0,0,0,0,0,0,0,0,0,0,0,0,0,0,0,0,0,0,0,0,0,0,0,0,0,0,0,0,0,0,0,0,0,0,0,0,0,0,0,0,0,0,0,0,0,0,0],"id":14,"left_children":[1,3,5,-1,7,9,11,13,15,17,-1,19,21,23,25,-1,-1,27,29,31,33,35,37,39,-1,41,-1,43,45,47,49,51,53,55,57,59,61,63,65,-1,-1,-1,-1,-1,-1,-1,-1,-1,-1,-1,-1,-1,-1,-1,-1,-1,-1,-1,-1,-1,-1,-1,-1,-1,-1,-1,-1],"loss_changes":[2.0937677E2,2.9188477E1,2.1906712E2,0E0,1.8398718E1,9.181607E2,1.7009296E2,1.0777402E1,9.21683E0,1.5054903E2,0E0,4.8450043E1,1.30939E2,1.289493E1,8.977993E0,0E0,0E0,3.3451157E1,9.500706E1,2.942688E1,6.5725006E1,1.0835395E2,9.490216E1,3.9398503E-1,0E0,3.4851213E0,0E0,2.648697E0,2.6680984E1,1.3254456E1,6.5654976E1,1.1080929E1,1.3503204E1,7.192589E0,3.231659E1,1.1640493E2,7.4883286E1,2.8186646E0,2.1492832E1,0E0,0E0,0E0,0E0,0E0,0E0,0E0,0E0,0E0,0E0,0E0,0E0,0E0,0E0,0E0,0E0,0E0,0E0,0E0,0E0,0E0,0E0,0E0,0E0,0E0,0E0,0E0,0E0],"parents":[2147483647,0,0,1,1,2,2,4,4,5,5,6,6,7,7,8,8,9,9,11,11,12,12,13,13,14,14,17,17,18,18,19,19,20,20,21,21,22,22,23,23,25,25,27,27,28,28,29,29,30,30,31,31,32,32,33,33,34,34,35,35,36,36,37,37,38,38],"right_children":[2,4,6,-1,8,10,12,14,16,18,-1,20,22,24,26,-1,-1,28,30,32,34,36,38,40,-1,42,-1,44,46,48,50,52,54,56,58,60,62,64,66,-1,-1,-1,-1,-1,-1,-1,-1,-1,-1,-1,-1,-1,-1,-1,-1,-1,-1,-1,-1,-1,-1,-1,-1,-1,-1,-1,-1],"split_conditions":[1.7392878E-1,4.9659973E-3,2E0,-3.0218858E-1,6.944956E4,1.0135008E0,8.317183E0,8.096847E2,1.1824522E0,2.2457097E2,3.2188845E-1,1.4177648E4,3E0,5.9751324E2,4.1104412E1,3.025906E-1,-2.9192457E-1,2.8640106E-1,2.0661268E0,-9.944457E0,3.1689572E2,1.05E2,2.054906E-2,3.3281746E1,-3.0616593E-1,4.5405094E4,-2.4918047E-1,2.7198154E1,3E0,1.2830349E4,3.212434E4,1.303E3,3.4325543E-1,3.3719604E1,1.6084246E1,4E0,2.0798779E0,3.0188274E1,4.5826348E4,2.952758E-3,2.0493636E-1,-1.5503176E-1,3.2237145E-1,-3.250181E-1,-6.65545E-2,-9.8901324E-2,-3.4638304E-1,-3.1499374E-1,-1.2284685E-1,-2.7934474E-1,3.7699174E-2,-2.4343923E-1,2.957366E-1,-3.2401907E-1,-2.0669636E-1,4.5545325E-1,-1.9193757E-1,-2.7012858E-1,5.59843E-2,6.068543E-2,-4.973564E-2,-2.998309E-1,1.827204E-1,-2.991413E-1,5.8438044E-2,-2.807621E-1,1.24750465E-1],"split_indices":[2,23,2,0,13,2,34,12,14,5,0,6,2,12,10,0,0,33,22,33,5,34,19,31,0,13,0,24,30,6,13,27,29,3,22,21,33,25,13,0,0,0,0,0,0,0,0,0,0,0,0,0,0,0,0,0,0,0,0,0,0,0,0,0,0,0,0],"split_type":[0,0,0,0,0,0,0,0,0,0,0,0,0,0,0,0,0,0,0,0,0,0,0,0,0,0,0,0,0,0,0,0,0,0,0,0,0,0,0,0,0,0,0,0,0,0,0,0,0,0,0,0,0,0,0,0,0,0,0,0,0,0,0,0,0,0,0],"sum_hessian":[8.267497E3,2.8343463E2,7.9840625E3,2.1828214E2,6.51525E1,3.3358933E3,4.648169E3,5.016544E1,1.4987055E1,2.3956497E3,9.402437E2,5.220607E2,4.126108E3,3.7957542E1,1.2207899E1,1.2995603E1,1.9914526E0,4.577276E2,1.9379221E3,3.8887082E2,1.3318993E2,3.8062712E3,3.1983694E2,5.339795E0,3.261775E1,8.204472E0,4.003427E0,1.2201295E2,3.3571466E2,1.3526329E2,1.8026588E3,1.5409857E1,3.7346097E2,2.2909033E1,1.1028089E2,3.6135273E3,1.9274379E2,2.2881174E2,9.10252E1,1.0764261E0,4.2633686E0,1.0322641E0,7.1722074E0,1.1773161E2,4.2813344E0,2.9104535E2,4.4669323E1,7.631228E1,5.895102E1,5.9844284E1,1.7428145E3,3.8687577E0,1.1541099E1,1.7136032E2,2.0210066E2,2.1785192E1,1.1238416E0,6.307813E1,4.7202763E1,2.2084385E3,1.4050887E3,1.5807498E2,3.46688E1,2.271128E2,1.6989415E0,1.2851106E1,7.8174095E1],"tree_param":{"num_deleted":"0","num_feature":"35","num_nodes":"67","size_leaf_vector":"1"}},{"base_weights":[7.2689923E-3,9.457393E-2,-2.385571E-1,-4.225709E-2,1.2279738E0,-7.4434483E-1,-1.3206159E-1,1.2490695E-1,-2.293279E-1,1.1936281E0,1.5797974E0,-8.122503E-1,1.6791875E-2,-3.562104E-1,9.3376465E-2,-1.6785862E-1,1.2615111E0,9.494971E-1,-2.9532766E-1,3.5338956E-1,4.4167504E-1,1.7839104E0,3.1583685E-1,-9.617882E-1,-4.0020984E-1,6.6574085E-1,-3.2421035E-1,-2.0773385E-1,-8.22163E-1,1.2463069E0,-2.7692178E-1,-2.560577E-1,9.8200583E-1,1.4098234E0,1.1943573E0,-9.7121006E-1,3.241309E-1,-1.9869633E-1,-8.6929643E-1,1.8356858E0,2.2472408E-1,-1.07778236E-1,-9.9380046E-1,-6.4932054E-1,5.858407E-1,-3.1073716E-1,1.1488489E0,-2.6817092E-1,1.8169892E0,-9.186901E-1,-2.877078E-1,3.5797262E-1,4.244978E-1,-2.318929E-2,-6.2517804E-1,-4.9210772E-2,-2.5828558E-1,-3.0139345E-1,3.2449E-1,3.9410096E-1,5.259018E-1,3.7435734E-1,3.1517E-1,-3.0824506E-1,-8.982584E-2,-3.5552695E-2,-2.7336937E-1,-2.778823E-1,5.7307005E-1,3.1660122E-1,5.8484226E-1,-2.8279006E-1,2.5782624E-1,-1.4688337E-1,-3.115399E-1,7.6289386E-2,-2.7333525E-1,-2.627096E-1,3.7829933E-1,-2.7635676E-1,2.9133883E-1,3.6463922E-1,5.4192003E-2,-1.1388661E-1,1.6512479E-1,9.3553E-1,4.0770411E-1,-3.0730996E-1,-1.1387916E-1,5.7424452E-2,-3.2180858E-1,2.9945356E-1,-5.168975E-2,-1.2791257E-1,-2.7802455E-1],"categories":[],"categories_nodes":[],"categories_segments":[],"categories_sizes":[],"default_left":[0,0,0,0,0,0,0,0,0,0,0,0,0,0,0,0,0,0,0,0,0,0,0,0,0,0,0,0,0,0,0,0,0,0,0,0,0,0,0,0,0,0,0,0,0,0,0,0,0,0,0,0,0,0,0,0,0,0,0,0,0,0,0,0,0,0,0,0,0,0,0,0,0,0,0,0,0,0,0,0,0,0,0,0,0,0,0,0,0,0,0,0,0,0,0],"id":15,"left_children":[1,3,5,7,9,11,13,15,17,19,21,23,25,27,29,31,33,35,37,-1,-1,39,-1,41,43,45,-1,47,49,51,53,55,57,59,61,63,-1,65,67,69,-1,71,73,75,77,79,81,83,85,87,89,-1,-1,91,93,-1,-1,-1,-1,-1,-1,-1,-1,-1,-1,-1,-1,-1,-1,-1,-1,-1,-1,-1,-1,-1,-1,-1,-1,-1,-1,-1,-1,-1,-1,-1,-1,-1,-1,-1,-1,-1,-1,-1,-1],"loss_changes":[1.6610785E2,8.8577795E2,1.09158516E2,1.5941953E2,5.54895E0,1.8237045E1,8.476447E1,8.961189E2,1.87444E2,7.298584E-1,3.6756897E0,1.9561584E1,2.1985771E1,5.801275E1,3.5759222E2,2.1746565E2,3.8097534E0,3.318605E1,1.2622012E2,0E0,0E0,5.417557E-1,0E0,6.366989E0,2.197533E1,9.500757E0,0E0,7.8695E1,1.0202728E1,1.3412476E-1,5.6024155E1,1.1062932E2,3.1327042E1,3.1868591E0,1.6600342E0,2.0561218E-2,0E0,1.1140912E2,5.372786E1,9.067764E-1,0E0,8.624556E0,4.6290894E0,1.6946856E1,1.9119217E1,6.5307918E0,6.305313E-1,5.690666E1,6.8797684E0,9.375549E0,1.2426534E1,0E0,0E0,5.6204407E1,1.5628052E1,0E0,0E0,0E0,0E0,0E0,0E0,0E0,0E0,0E0,0E0,0E0,0E0,0E0,0E0,0E0,0E0,0E0,0E0,0E0,0E0,0E0,0E0,0E0,0E0,0E0,0E0,0E0,0E0,0E0,0E0,0E0,0E0,0E0,0E0,0E0,0E0,0E0,0E0,0E0,0E0],"parents":[2147483647,0,0,1,1,2,2,3,3,4,4,5,5,6,6,7,7,8,8,9,9,10,10,11,11,12,12,13,13,14,14,15,15,16,16,17,17,18,18,21,21,23,23,24,24,25,25,27,27,28,28,29,29,30,30,31,31,32,32,33,33,34,34,35,35,37,37,38,38,39,39,41,41,42,42,43,43,44,44,45,45,46,46,47,47,48,48,49,49,50,50,53,53,54,54],"right_children":[2,4,6,8,10,12,14,16,18,20,22,24,26,28,30,32,34,36,38,-1,-1,40,-1,42,44,46,-1,48,50,52,54,56,58,60,62,64,-1,66,68,70,-1,72,74,76,78,80,82,84,86,88,90,-1,-1,92,94,-1,-1,-1,-1,-1,-1,-1,-1,-1,-1,-1,-1,-1,-1,-1,-1,-1,-1,-1,-1,-1,-1,-1,-1,-1,-1,-1,-1,-1,-1,-1,-1,-1,-1,-1,-1,-1,-1,-1,-1],"split_conditions":[3E0,2.0172818E0,2.0756337E-1,2E0,6E0,8.238936E2,3.0344367E0,1.0495807E0,5.9751324E2,2.978933E0,7.451836E2,1.1718647E3,2.673557E1,2E0,4E0,7.19042E4,2.8355107E-2,4.787666E-3,5.8070664E0,3.5338956E-1,4.4167504E-1,7.9539645E-1,3.1583685E-1,1.3006842E2,6.5524055E1,5.841289E1,-3.2421035E-1,1.0108485E0,5.5474215E4,3.8578844E0,4.2558586E1,5.036443E4,4.787666E-3,4.4E1,3.4325543E-1,8.33E2,3.241309E-1,2E0,7.2663086E4,2.082473E2,2.2472408E-1,3.817589E2,9.248837E1,6.260227E2,1.6084246E1,2.2692184E1,5.5100854E-2,2.5217342E1,1.0135008E0,8.581631E1,6.6783094E-1,3.5797262E-1,4.244978E-1,2E0,4E0,-4.9210772E-2,-2.5828558E-1,-3.0139345E-1,3.2449E-1,3.9410096E-1,5.259018E-1,3.7435734E-1,3.1517E-1,-3.0824506E-1,-8.982584E-2,-3.5552695E-2,-2.7336937E-1,-2.778823E-1,5.7307005E-1,3.1660122E-1,5.8484226E-1,-2.8279006E-1,2.5782624E-1,-1.4688337E-1,-3.115399E-1,7.6289386E-2,-2.7333525E-1,-2.627096E-1,3.7829933E-1,-2.7635676E-1,2.9133883E-1,3.6463922E-1,5.4192003E-2,-1.1388661E-1,1.6512479E-1,9.3553E-1,4.0770411E-1,-3.0730996E-1,-1.1387916E-1,5.7424452E-2,-3.2180858E-1,2.9945356E-1,-5.168975E-2,-1.2791257E-1,-2.7802455E-1],"split_indices":[14,14,33,14,21,12,14,14,12,14,12,5,34,4,14,13,30,0,11,0,0,33,0,27,10,31,0,4,13,14,10,13,0,34,29,27,0,1,6,5,0,5,5,12,22,34,1,29,2,3,33,0,0,22,21,0,0,0,0,0,0,0,0,0,0,0,0,0,0,0,0,0,0,0,0,0,0,0,0,0,0,0,0,0,0,0,0,0,0,0,0,0,0,0,0],"split_type":[0,0,0,0,0,0,0,0,0,0,0,0,0,0,0,0,0,0,0,0,0,0,0,0,0,0,0,0,0,0,0,0,0,0,0,0,0,0,0,0,0,0,0,0,0,0,0,0,0,0,0,0,0,0,0,0,0,0,0,0,0,0,0,0,0,0,0,0,0,0,0,0,0,0,0,0,0,0,0,0,0,0,0,0,0,0,0,0,0,0,0,0,0,0,0],"sum_hessian":[7.737635E3,5.710257E3,2.0273779E3,5.0959995E3,6.1425775E2,3.5158374E2,1.6757942E3,2.691364E3,2.4046353E3,5.6362787E2,5.062984E1,3.2272443E2,2.8859308E1,8.400089E2,8.357852E2,2.1407927E3,5.505713E2,1.2678237E2,2.277853E3,5.3857916E2,2.5048706E1,3.477595E1,1.58538885E1,2.3580997E2,8.691445E1,1.8382885E1,1.0476423E1,6.3811755E2,2.0189137E2,2.0260503E2,6.331802E2,1.9890055E3,1.5178717E2,1.6536392E2,3.8520737E2,7.68188E0,1.19100494E2,1.9507739E3,3.270791E2,3.2381893E1,2.3940582E0,8.677667E0,2.2713231E2,6.965793E1,1.7256525E1,6.2026424E0,1.2180242E1,6.2046454E2,1.7653032E1,1.7039726E2,3.1494108E1,1.602635E2,4.2341515E1,3.6691785E2,2.6626233E2,1.7274777E3,2.6152783E2,6.8145995E0,1.4497256E2,1.3294347E2,3.242046E1,2.751525E2,1.1005487E2,6.599587E0,1.0822929E0,1.7544928E3,1.9628105E2,3.2116232E2,5.916788E0,5.4284835E0,2.6953411E1,4.671111E0,4.0065556E0,1.9457453E1,2.0767485E2,1.565427E1,5.4003654E1,5.3588905E0,1.1897635E1,4.3923035E0,1.8103391E0,1.1157224E1,1.0230176E0,5.465831E2,7.3881386E1,3.082949E0,1.4570084E1,1.4171687E2,2.8680387E1,2.0026777E1,1.1467331E1,4.6017117E1,3.2090076E2,1.619287E2,1.0433363E2],"tree_param":{"num_deleted":"0","num_feature":"35","num_nodes":"95","size_leaf_vector":"1"}},{"base_weights":[1.0998466E-2,-2.86302E-1,7.914158E-2,-1.9098021E-2,-5.7142735E-1,1.2634221E0,-4.961657E-3,-4.0134317E-1,1.2569205E0,-6.777661E-1,-1.4296986E-1,6.6744316E-1,1.2470372E0,-7.139098E-1,8.802808E-2,2.0978537E-1,-5.1059407E-1,1.3616594E0,3.1501588E-1,-4.3641776E-1,-9.6132064E-1,3.8273326E-1,-3.491985E-1,1.2950015E0,3.2596537E-1,1.8238062E-1,-7.596384E-1,1.236085E0,-3.0595366E-2,-4.7536752E-1,1.0498339E0,-7.1515036E-1,-3.2576558E-1,3.5531896E-1,1.7862828E0,2.3972589E-1,-6.0819733E-1,-8.5164614E-2,-9.923132E-1,3.9593375E-1,-6.103632E-1,3.8340232E-1,1.9708152E0,-1.0137212E0,1.4800333E0,-8.0399394E-1,-7.1985334E-2,1.2889994E0,3.221027E-1,-6.599589E-1,1.2499738E-1,1.974776E-1,-2.1622346E-1,-2.6382774E-1,4.0365E-1,-1.2981541E-1,-3.0043128E-1,-7.2931643E-3,-2.1665697E-1,7.2796327E-1,4.440224E-1,2.661329E-1,-4.5763895E-2,-1.8875389E-1,3.6105463E-1,-2.8369492E-1,3.7090862E-1,-2.4732335E-1,-3.185968E-1,-1.3564964E-1,2.3840417E-1,-3.1665584E-1,1.10622026E-1,2.0825289E-1,7.5276005E-1,-3.303301E-1,3.85833E-2,5.2371216E-1,-2.2948517E-1,-2.775423E-1,-1.6859472E-1,1.0510717E-1,-3.136298E-1,3.6914787E-1,4.3013158E-1,-2.2938697E-1,7.3684834E-2,4.0300706E-1,-4.3031186E-2],"categories":[],"categories_nodes":[],"categories_segments":[],"categories_sizes":[],"default_left":[0,0,0,0,0,0,0,0,0,0,0,0,0,0,0,0,0,0,0,0,0,0,0,0,0,0,0,0,0,0,0,0,0,0,0,0,0,0,0,0,0,0,0,0,0,0,0,0,0,0,0,0,0,0,0,0,0,0,0,0,0,0,0,0,0,0,0,0,0,0,0,0,0,0,0,0,0,0,0,0,0,0,0,0,0,0,0,0,0],"id":16,"left_children":[1,3,5,7,9,11,13,15,17,19,21,-1,23,25,27,29,31,33,-1,35,37,-1,39,41,-1,43,45,47,49,51,53,55,57,-1,59,61,63,65,67,69,71,-1,73,75,77,79,81,83,-1,85,87,-1,-1,-1,-1,-1,-1,-1,-1,-1,-1,-1,-1,-1,-1,-1,-1,-1,